svm_type c_svc
kernel_type rbf
gamma 0.5
nr_class 15
total_sv 1084
rho 0 -6.02829 24.3259 -12.4125 -3.89485 28.3039 25.8416 4.42212 7.10543e-15 -6.5533 4.61944 5.55068 0.609319 21.8978 -0.0543213 0 0 0 0 0 0.257204 0.066821 0 0 0.107914 0.207773 0.0226234 13.6017 -36.069 -50.4998 27.6687 36.9239 0.0548424 -0.00645732 0 -0.0735433 0 0.00997764 0 -12.0453 -4.04727 -28.7711 5.48233 24.0981 4.50481 8.21159 6.7669 5.3262 4.85089 20.2032 39.3603 8.80621 20.3606 0.0547104 -0.00247437 0 -0.0335695 0 0.0135417 0 -23.8627 -3.17159 0.0756427 0 0 0 0 0.0352399 0 -1.8962 -1.77636e-15 0 -6.60778 -3.56015 -24.7699 -0.126562 -17.7025 -14.601 12.2697 -13.124 -5.86218 5.02967 6.08181 13.5857 -4.80617 -2.30226 2.51021 5.03402 -9.55439 22.9644 -0.400258 -7.49204 -15.8125 -0.359048 -16.477 8.72513 21.2653 14.622 -4.58218 20.3142 2.89993 10.9215 -1.56975 -18.0718 0.161826
label 1 2 3 4 5 6 7 8 -1 -2 -3 -4 -5 -6 -7
nr_sv 126 1 60 60 57 13 175 178 60 60 60 60 60 56 58
SV
0 0 0 0 0 4096 4096 0 0 0 0 0 0 0 1:-0.41639819 2:-0.82274591 
0 0 4096 0 0 4096 4096 0 0 0 0 0 0 0 1:-0.48135801 2:-0.8731818 
0 0 0 0 0 4096 4096 0 0 0 0 0 0 0 1:-0.3893325 2:-0.79913355 
0 0 0 0 0 4096 4096 0 0 0 0 0 0 0 1:-0.367027 2:-0.79445418 
0 0 0 0 0 4096 4096 0 0 0 0 0 0 0 1:-0.37667798 2:-0.78184467 
0 0 0 0 0 4096 4096 0 0 0 0 0 0 0 1:-0.39166854 2:-0.78477509 
0 0 4096 0 0 4096 4096 0 0 0 0 0 0 0 1:-0.35012344 2:-0.83333181 
0 0 4096 0 0 4096 4096 0 0 0 0 0 0 0 1:-0.35301044 2:-0.80748018 
0 0 4096 0 0 4096 4096 0 0 0 0 0 0 0 1:-0.4003647 2:-0.82048481 
0 0 4096 0 0 4096 4096 0 0 0 0 0 0 0 1:-0.40318655 2:-0.85191814 
0 0 4096 0 0 4096 4096 0 0 0 0 0 0 0 1:-0.39897363 2:-0.87306396 
0 0 4096 0 0 4096 4096 0 0 0 0 0 0 0 1:-0.40721116 2:-0.84557659 
0 0 4096 0 0 4096 4096 0 0 0 0 0 0 0 1:-0.39210649 2:-0.81587431 
0 0 2357.55352077925 0 0 4096 4096 0 0 0 0 0 0 0 1:-0.42039106 2:-0.83160223 
0 0 4096 0 0 4096 4096 0 0 0 0 0 0 0 1:-0.414577 2:-0.83313922 
0 0 4096 0 0 4096 4096 0 0 0 0 0 0 0 1:-0.41033027 2:-0.83195683 
0 0 4096 0 0 4096 4096 0 0 0 0 0 0 0 1:-0.46458266 2:-0.86053594 
0 4096 0 2128.899231710271 0 4096 4096 0 0 0 0 0 0 0 1:-0.50316194 2:-0.87128671 
0 0 0 0 0 1986.577237679944 0 0 0 0 0 0 0 0 1:-0.44066734 2:-0.72141371 
0 0 0 0 0 4096 0 0 0 0 0 0 0 0 1:-0.49374656 2:-0.74563676 
0 0 0 0 0 4096 0 0 0 0 0 0 0 0 1:-0.4379688 2:-0.75369704 
0 0 0 0 0 4096 0 0 0 0 0 0 0 0 1:-0.46102179 2:-0.76435914 
0 0 0 0 0 4096 0 0 0 0 0 0 0 0 1:-0.48540876 2:-0.77263608 
0 0 0 0 0 4096 0 0 0 0 0 0 0 0 1:-0.5328674 2:-0.82033746 
0 0 0 0 0 4096 0 0 0 0 0 0 0 0 1:-0.47867943 2:-0.76864729 
0 0 0 0 0 4096 0 0 0 0 0 0 0 0 1:-0.5093879 2:-0.79669524 
0 0 0 0 0 4096 0 0 0 0 0 0 0 0 1:-0.43796176 2:-0.73868712 
0 0 0 0 0 0 4096 0 0 0 0 0 0 0 1:-0.33924336 2:-0.74912996 
0 0 0 0 0 4096 4096 0 0 0 0 0 0 0 1:-0.42025046 2:-0.80287578 
0 0 0 0 0 0 4096 0 0 0 0 0 0 0 1:-0.32899605 2:-0.74533876 
0 0 0 0 0 0 4096 0 0 0 0 0 0 0 1:-0.25707476 2:-0.67814336 
0 0 0 0 0 3312.349521977628 4096 0 0 0 0 0 0 0 1:-0.37152853 2:-0.77100629 
0 0 4096 0 0 0 4096 0 0 0 4096 4096 0 0 1:-0.19916595 2:-0.66818774 
0 0 4096 0 0 0 4096 0 0 0 0 0 0 0 1:-0.29539928 2:-0.76860527 
0 0 3576.23499837128 0 0 0 4096 0 0 0 0 4096 0 4096 1:-0.27696017 2:-0.45007207 
0 0 0 0 0 0 4096 0 0 0 0 0 0 0 1:-0.33242597 2:-0.51960684 
0 0 0 0 0 0 4096 0 0 0 0 0 0 0 1:-0.27556869 2:-0.52091915 
0 0 4096 0 0 4096 4096 0 130.7624607374731 2327.602428080254 2622.034510026282 4096 0 4096 1:-0.25593983 2:-0.37102977 
0 0 0 0 0 839.1088406819276 4096 0 0 0 0 210.5429269137809 0 4096 1:-0.30248257 2:-0.44030713 
0 0 0 0 0 0 4096 0 0 0 0 0 0 0 1:-0.30740389 2:-0.54083059 
0 0 0 0 0 0 4096 0 0 0 0 0 0 0 1:-0.29128861 2:-0.50731598 
0 0 0 0 0 4096 0 0 0 0 0 0 0 0 1:-0.49468396 2:-0.76405921 
0 0 4096 0 0 0 4096 0 0 0 0 0 0 0 1:-0.27357527 2:-0.78202074 
0 0 0 0 0 0 4096 0 0 0 0 0 0 0 1:-0.27728721 2:-0.71094539 
0 0 4096 0 0 0 4096 0 0 0 0 0 0 0 1:-0.27895278 2:-0.7302659 
0 0 4096 0 0 0 4096 0 0 0 81.18878755278867 0 0 0 1:-0.19907912 2:-0.71002675 
0 0 4096 0 0 1703.849496186014 4096 0 0 0 0 0 0 942.7110663146871 1:-0.16609602 2:-0.78693935 
0 0 4096 0 0 0 4096 0 0 0 0 0 0 0 1:-0.20570005 2:-0.75325696 
0 0 4096 0 0 4096 4096 0 0 0 0 0 0 0 1:-0.18386769 2:-0.79407883 
0 0 4096 0 0 0 4096 0 0 0 0 2808.604588248479 0 0 1:-0.17052358 2:-0.77383336 
0 0 4096 0 0 0 4096 0 0 0 0 0 0 0 1:-0.25952952 2:-0.77188057 
0 0 4096 0 0 4096 4096 0 0 0 0 0 0 0 1:-0.3003838 2:-0.82616512 
0 0 4096 0 0 4096 4096 0 0 0 0 0 0 0 1:-0.232777 2:-0.87004393 
0 0 4096 0 0 4096 4096 0 0 0 0 0 0 308.9211440228103 1:-0.1679665 2:-0.85968561 
0 0 4096 0 0 4096 4096 0 0 0 0 0 0 0 1:-0.28105507 2:-0.83573875 
0 4096 4096 4096 1282.637065637799 4096 4096 0 0 0 0 1530.841244092325 0 0 1:-0.46931325 2:-0.9076617 
0 0 4096 0 0 4096 4096 0 0 0 0 0 0 0 1:-0.31649616 2:-0.86511307 
0 0 4096 0 0 4096 4096 0 0 0 0 0 0 0 1:-0.3145715 2:-0.85504858 
0 0 4096 0 0 4096 4096 0 0 0 0 0 0 0 1:-0.20415901 2:-0.87075567 
0 0 4096 0 0 4096 4096 0 0 0 0 37.82191384008505 0 0 1:-0.35005123 2:-0.88318458 
0 0 0 0 0 4096 0 0 0 0 0 0 0 0 1:-0.48088237 2:-0.77325016 
0 0 0 0 0 4096 0 0 0 0 0 0 0 0 1:-0.5754209 2:-0.79378867 
0 0 0 0 0 4096 0 0 0 0 0 0 0 0 1:-0.44467445 2:-0.74008751 
0 0 0 0 0 4096 0 0 0 0 0 0 0 0 1:-0.48857913 2:-0.80346977 
0 0 0 0 0 4096 0 0 0 0 0 0 0 0 1:-0.48714476 2:-0.666976 
0 0 4096 0 0 0 4096 389.4187239143724 0 4096 4096 4096 102.9667057538607 4096 1:-0.11431296 2:-0.53909487 
0 0 2415.257069635976 0 0 0 4096 0 0 0 4096 569.8336454723291 0 0 1:-0.22601318 2:-0.62897097 
0 0 0 0 0 4096 0 0 0 0 0 0 0 0 1:-0.42234445 2:-0.77124804 
0 0 0 0 0 4096 0 0 0 0 0 0 0 0 1:-0.42243023 2:-0.75478456 
0 0 0 0 0 4096 0 0 0 0 0 0 0 0 1:-0.43452605 2:-0.75415663 
0 0 0 0 0 4096 0 0 0 0 0 0 0 0 1:-0.43282055 2:-0.7737677 
0 0 0 0 0 4096 0 0 0 0 0 0 0 0 1:-0.46762303 2:-0.78788736 
0 0 0 0 0 4096 0 0 0 0 0 0 0 0 1:-0.45259153 2:-0.7655858 
0 0 0 0 0 4096 0 0 0 0 0 0 0 0 1:-0.42293802 2:-0.75895528 
0 0 0 0 0 4096 1808.203972259438 0 0 0 0 0 0 0 1:-0.41418624 2:-0.7826391 
0 0 0 0 0 4096 0 0 0 0 0 0 0 0 1:-0.41360644 2:-0.78008999 
0 0 0 0 0 4096 4096 0 0 0 0 0 0 0 1:-0.40223423 2:-0.77882795 
0 0 0 0 0 4096 4096 0 0 0 0 0 0 0 1:-0.43136112 2:-0.80266515 
0 0 0 0 0 4096 0 0 0 0 0 0 0 0 1:-0.43454426 2:-0.77212315 
0 0 0 0 0 0 4096 0 0 0 0 0 0 0 1:-0.35360654 2:-0.74848713 
0 0 0 0 0 4096 0 0 0 0 0 0 0 0 1:-0.44460399 2:-0.7911773 
0 0 0 0 0 4096 4096 0 0 0 0 0 0 0 1:-0.39944017 2:-0.78697742 
0 0 0 0 0 4096 0 0 0 0 0 0 0 0 1:-0.44002763 2:-0.78362009 
0 0 0 0 0 4096 4096 0 0 0 0 0 0 0 1:-0.41079709 2:-0.80197993 
0 0 0 0 0 0 4096 0 0 0 4096 4096 0 0 1:-0.23336096 2:-0.56403394 
0 0 0 0 0 0 4096 0 0 0 4096 4096 0 0 1:-0.25146578 2:-0.53661527 
0 0 0 0 0 0 4096 0 0 0 0 0 0 0 1:-0.28824496 2:-0.72985121 
0 0 4096 0 0 0 4096 0 0 0 0 0 0 0 1:-0.23274826 2:-0.73224767 
0 0 4096 0 0 0 4096 0 0 0 0 0 0 0 1:-0.24835029 2:-0.69866921 
0 0 0 0 0 0 1428.422455236668 0 0 0 0 0 0 0 1:-0.23426121 2:-0.63325137 
0 0 4096 0 0 0 4096 0 0 0 0 0 0 0 1:-0.21066585 2:-0.72030538 
0 0 0 0 0 0 4096 0 0 0 0 0 0 0 1:-0.25890458 2:-0.6979318 
0 0 4096 0 0 0 4096 0 0 0 0 0 0 0 1:-0.23396201 2:-0.68729133 
0 0 0 0 0 4096 4096 0 0 0 0 0 0 0 1:-0.39865823 2:-0.78274063 
0 0 0 0 0 4096 4096 0 0 0 0 0 0 0 1:-0.46176294 2:-0.84552049 
0 0 0 0 0 4096 0 0 0 0 0 0 0 0 1:-0.434291 2:-0.76486668 
0 0 0 0 0 4096 0 0 0 0 0 0 0 0 1:-0.41569876 2:-0.75731452 
12.49642735041462 4096 0 4096 806.5631978318916 4096 4096 0 0 44.56302995620326 1681.198576997205 0 0 0 1:-0.59249315 2:-0.8827639 
0 0 0 0 0 4096 0 0 0 0 0 0 0 0 1:-0.42841047 2:-0.77209952 
0 0 0 0 0 4096 4096 0 0 0 0 0 0 0 1:-0.41095971 2:-0.78563119 
0 11.81167568440197 0 0 0 4096 4096 0 0 0 0 0 0 0 1:-0.49079473 2:-0.87436793 
0 0 0 0 0 4096 4096 0 0 0 0 0 0 0 1:-0.48335159 2:-0.84177313 
0 0 0 0 0 4096 4096 0 0 0 0 0 0 0 1:-0.42782075 2:-0.82460996 
0 0 0 0 0 4096 4096 0 0 0 0 0 0 0 1:-0.40748142 2:-0.77909134 
0 0 0 0 0 0 4096 0 0 0 0 0 0 0 1:-0.30159589 2:-0.72895963 
0 0 0 0 0 0 4096 0 0 0 0 0 0 0 1:-0.29393618 2:-0.72993877 
0 0 4096 0 0 4096 4096 0 0 0 0 0 0 0 1:-0.45581022 2:-0.8732277 
0 0 4096 0 0 0 4096 0 0 0 0 0 0 0 1:-0.31753201 2:-0.77829517 
0 0 0 0 0 4096 0 0 0 0 0 0 0 0 1:-0.53136629 2:-0.83514524 
0 0 0 0 0 4096 0 0 0 0 0 0 0 0 1:-0.41690377 2:-0.76665739 
0 0 0 0 0 4096 0 0 0 0 0 0 0 0 1:-0.43976049 2:-0.77839545 
0 0 0 0 0 4096 4096 0 0 0 0 0 0 0 1:-0.40695972 2:-0.78784262 
0 0 0 0 0 4096 4096 0 0 0 0 0 0 0 1:-0.39110534 2:-0.78793834 
0 0 0 0 0 4096 4096 0 0 0 0 0 0 0 1:-0.36529851 2:-0.77585245 
0 0 0 0 0 0 4096 0 0 0 0 0 0 0 1:-0.36217385 2:-0.77118894 
0 0 0 0 0 0 4096 0 0 0 0 0 0 0 1:-0.33937124 2:-0.75952972 
0 0 0 0 0 4096 4096 0 0 0 0 0 0 0 1:-0.46398153 2:-0.84786753 
0 0 4096 0 0 4096 4096 0 0 0 0 0 0 0 1:-0.37342298 2:-0.83607866 
0 0 4096 0 0 4096 4096 0 0 0 0 0 0 0 1:-0.32600687 2:-0.78266504 
0 0 0 0 0 4096 0 0 0 0 0 0 0 0 1:-0.48263467 2:-0.7483029 
0 0 0 0 0 0 4096 0 0 0 403.848706973048 0 0 0 1:-0.24747357 2:-0.57719334 
0 0 0 0 0 0 4096 0 0 3307.06230095098 4096 4096 0 1392.42159550226 1:-0.23037302 2:-0.55275397 
0 0 0 0 0 4096 0 0 0 0 0 0 0 0 1:-0.38957989 2:-0.76821559 
0 0 0 0 0 4096 0 0 0 0 0 0 0 0 1:-0.42030002 2:-0.7785003 
0 0 0 0 0 0 4096 0 0 0 4096 4096 0 4096 1:-0.24917355 2:-0.5121828 
0 0 0 0 0 0 3895.254035920701 0 0 0 0 0 0 0 1:-0.31225696 2:-0.54405365 
-12.49642735041462 4096 12.12104853631029 33.48030660118497 133.0300358400206 19.00140665454062 13.05358850408906 2.65899563741598 2.254545023429339 3.419858979771174 5.747434721705031 4.103744853285765 2.248499036548468 3.427276350670521 1:-0.98373549 2:-0.99999202 
-0 -0 0 4096 0 4096 0 0 0 0 0 0 0 0 1:-0.59330049 2:-0.89118097 
-0 -0 0 4096 0 0 0 0 0 0 0 0 0 0 1:-0.60746462 2:-0.89438454 
-0 -0 0 4096 0 0 0 0 0 0 0 0 0 0 1:-0.62789609 2:-0.89772203 
-0 -0 0 4096 4096 0 0 0 0 0 0 0 0 0 1:-0.63402267 2:-0.97003451 
-0 -0 0 4096 4096 0 0 0 0 0 0 0 0 0 1:-0.63610521 2:-0.94474019 
-0 -0 0 4096 808.2991240838163 0 0 0 0 0 0 0 0 0 1:-0.6358452 2:-0.93079181 
-0 -0 0 4096 0 4096 4096 0 0 0 0 0 0 0 1:-0.54358158 2:-0.9169589 
-0 -0 0 4096 0 4096 4096 0 0 0 0 0 0 0 1:-0.55362865 2:-0.91666156 
-0 -0 0 4096 0 4096 0 0 0 0 0 0 0 0 1:-0.55945217 2:-0.91421705 
-0 -0 0 4096 0 4096 0 0 0 0 0 0 0 0 1:-0.56968423 2:-0.93017134 
-0 -0 0 4096 0 4096 437.099320339731 0 0 0 0 0 0 0 1:-0.57104166 2:-0.94060822 
-0 -0 0 4096 0 4096 4096 0 0 0 0 0 0 0 1:-0.51637767 2:-0.91124933 
-0 -0 0 4096 0 4096 0 0 0 0 0 0 0 0 1:-0.60371193 2:-0.95172593 
-0 -0 0 4096 0 4096 0 0 0 0 0 0 0 0 1:-0.59757656 2:-0.94662161 
-0 -4096 0 593.3013966283621 3612.725917441067 0 0 0 0 0 0 0 0 0 1:-0.96278366 2:-0.99855376 
-0 -0 0 4096 0 4096 0 0 0 0 0 0 0 0 1:-0.596879 2:-0.90256713 
-0 -0 0 4096 0 0 0 0 0 0 0 0 0 0 1:-0.61346393 2:-0.89184398 
-0 -0 0 4096 0 0 0 0 0 0 0 0 0 0 1:-0.61325974 2:-0.896903 
-0 -0 0 4096 4096 0 0 0 0 0 0 0 0 0 1:-0.64185863 2:-0.97170839 
-0 -0 0 4096 0 0 0 0 0 0 0 0 0 0 1:-0.62826349 2:-0.93570086 
-0 -0 0 4096 4096 0 0 0 0 0 0 0 0 0 1:-0.73647289 2:-0.91165206 
-0 -0 0 4096 0 4096 0 0 0 0 0 0 0 0 1:-0.57167175 2:-0.92461057 
-0 -0 0 4096 0 4096 0 0 0 0 0 0 0 0 1:-0.5671433 2:-0.91631819 
-0 -0 0 4096 0 4096 0 0 0 0 0 0 0 0 1:-0.56963746 2:-0.91691607 
-0 -0 0 4096 4096 0 0 0 0 0 0 0 0 0 1:-0.62240293 2:-0.94455441 
-0 -0 0 4096 0 4096 0 0 0 0 0 0 0 0 1:-0.5968252 2:-0.95073586 
-0 -0 0 4096 0 4096 4096 0 0 0 0 0 0 0 1:-0.54682589 2:-0.90409947 
-0 -0 0 4096 0 4096 0 0 0 0 0 0 0 0 1:-0.58359019 2:-0.93055911 
-0 -0 0 4096 0 4096 0 0 0 0 0 0 0 0 1:-0.60474086 2:-0.93873872 
-0 -0 0 4096 4096 4096 0 0 0 0 0 0 0 0 1:-0.61148778 2:-0.95454296 
-0 -0 0 4096 3621.768427561891 4096 0 0 0 0 0 0 0 0 1:-0.59246144 2:-0.96596282 
-0 -0 0 4096 0 4096 0 0 0 0 0 0 0 0 1:-0.58290006 2:-0.90962203 
-0 -0 0 4096 0 4096 4096 0 0 0 0 0 0 0 1:-0.54368547 2:-0.94341059 
-0 -0 0 4096 0 4096 0 0 0 0 0 0 0 0 1:-0.5952425 2:-0.90245822 
-0 -0 0 4096 0 3959.859748321919 0 0 0 0 0 0 0 0 1:-0.60500014 2:-0.90611354 
-4096 -0 0 4096 0 4096 4096 0 0 0 0 0 0 0 1:-0.51772401 2:-0.90067167 
-0 -0 0 4096 4096 0 0 0 0 0 0 0 0 0 1:-0.63404955 2:-0.93676466 
-0 -0 0 4096 0 4096 0 0 0 0 0 0 0 0 1:-0.56989239 2:-0.92106632 
-0 -0 0 4096 0 4096 0 0 0 0 0 0 0 0 1:-0.57008369 2:-0.86709184 
-0 -0 0 4096 0 4096 0 0 0 0 0 0 0 0 1:-0.57445962 2:-0.9366953 
-2217.802107068125 -0 4096 4096 0 4096 0 0 1.359384938851451 0 14.19222218062031 0 0 0 1:-0.59741068 2:-0.83838204 
-0 -0 0 4096 0 4096 4096 0 0 0 0 0 0 0 1:-0.55107109 2:-0.90025726 
-0 -0 0 4096 0 2344.122228265278 0 0 0 0 0 0 0 0 1:-0.60715894 2:-0.92049286 
-0 -0 0 4096 0 4096 0 0 0 0 0 0 0 0 1:-0.58222046 2:-0.92543437 
-0 -0 0 4096 0 4096 0 0 0 0 0 0 0 0 1:-0.58344475 2:-0.88783613 
-0 -0 0 4096 4096 0 0 0 0 0 0 0 0 0 1:-0.62361703 2:-0.97221514 
-0 -0 0 4096 0 4096 0 0 0 0 0 0 0 0 1:-0.60335926 2:-0.90328167 
-0 -0 0 4096 4096 0 0 0 0 0 0 0 0 0 1:-0.61619218 2:-0.94784008 
-0 -0 0 4096 0 4096 0 0 0 0 0 0 0 0 1:-0.54908727 2:-0.89288856 
-0 -0 0 4096 0 4096 4096 0 0 0 0 0 0 0 1:-0.54027986 2:-0.9232969 
-0 -0 0 0 0 4096 4096 0 0 0 0 0 0 0 1:-0.5127332 2:-0.91911207 
-0 -0 0 4096 0 4096 0 0 0 0 0 0 0 0 1:-0.59421408 2:-0.94364943 
-0 -0 0 4096 0 4096 4096 0 0 0 0 0 0 0 1:-0.5253128 2:-0.93629498 
-4096 -0 0 0 0 4096 4096 8.29101856596926 3.303619069493641 13.38609083626686 47.78122438750653 26.04433860774723 5.469402125792346 15.52895223268044 1:-0.49760694 2:-0.89768736 
-0 -0 0 0 0 4096 4096 0 0 0 0 0 0 0 1:-0.50841786 2:-0.93436623 
-0 -0 0 4096 0 4096 0 0 0 0 0 0 0 0 1:-0.59180388 2:-0.86672519 
-1890.009568616278 -0 0 327.249075725871 0 4096 4096 0 0 0 0 0 0 0 1:-0.51004077 2:-0.91192818 
-0 -0 0 4096 0 0 0 0 0 0 0 0 0 0 1:-0.62599795 2:-0.93687021 
-0 -0 0 4096 0 2004.858572197584 0 0 0 0 0 0 0 0 1:-0.61018741 2:-0.93521252 
-0 -0 0 4096 0 4096 0 0 0 0 0 0 0 0 1:-0.59442974 2:-0.91150852 
-4096 -0 -0 0 0 4096 4096 0 0 0 0 0 0 0 1:-0.30366242 2:-0.88559312 
-4096 -0 -0 0 0 4096 4096 0 0 0 0 0 0 0 1:-0.29698527 2:-0.8938997 
-4096 -0 -0 0 0 0 4096 0 0 0 0 0 0 0 1:-0.19413128 2:-0.71695613 
-4096 -0 -0 0 0 4096 4096 0 0 0 0 0 0 0 1:-0.30992207 2:-0.84217262 
-4096 -0 -0 0 0 0 4096 0 0 0 0 0 0 0 1:-0.25628022 2:-0.86604072 
-4096 -0 -0 0 0 4096 4096 0 0 0 0 0 0 0 1:-0.32281317 2:-0.84329842 
-0 -0 -0 0 0 0 4096 0 0 0 811.07903179243 0 0 0 1:-0.052635965 2:-0.70961013 
-0 -0 -0 0 0 0 0 0 0 0 4096 0 0 2357.890445889424 1:-0.042378569 2:-0.60245635 
-1784.264631618034 -0 -0 0 0 0 4096 834.6564180287469 0 4096 4096 4096 0 4096 1:-0.10816528 2:-0.45833016 
-4096 -0 -0 0 0 4096 4096 0 0 0 4096 4096 0 0 1:-0.20598981 2:-0.57289338 
-4096 -0 -0 0 0 4096 4096 0 0 0 0 0 0 0 1:-0.32292018 2:-0.89204025 
-0 -0 -0 0 0 0 4096 894.9178205521976 0 0 0 0 0 778.1708687700331 1:-0.13783736 2:-0.8646942 
-4096 -0 -0 0 0 4096 4096 0 0 0 0 2401.050127788742 0 0 1:-0.31884041 2:-0.73924659 
-4096 -0 -0 0 0 4096 4096 0 0 0 4096 0 0 0 1:-0.38381624 2:-0.71507174 
-4096 -0 -0 0 0 4096 4096 0 0 0 0 0 0 0 1:-0.38522276 2:-0.81401396 
-1238.646175796685 -0 -0 0 0 4096 4096 0 0 0 0 0 0 0 1:-0.3106069 2:-0.90456904 
-0 -0 -0 0 0 0 4096 0 0 0 0 648.267090684506 0 0 1:-0.28810814 2:-0.92639469 
-0 -0 -329.3409020403927 363.7500566231025 161.3358626803721 4096 4096 0 0 0 0 0 0 0 1:-0.33773307 2:-0.9300504 
-4096 -0 -0 0 0 4096 4096 0 0 0 0 0 0 0 1:-0.33751369 2:-0.83131227 
-4096 -0 -0 0 0 4096 4096 0 0 0 0 0 0 0 1:-0.37768458 2:-0.84368619 
-4096 -0 -0 0 0 4096 4096 0 0 0 0 0 0 0 1:-0.31584774 2:-0.81020293 
-4096 -0 -0 0 0 0 4096 0 0 0 0 0 0 0 1:-0.16158764 2:-0.789571 
-0 -0 -0 0 0 0 0 4096 0 2778.1416835664 4096 1353.557163878601 3286.930041880507 4096 1:0.0081884037 2:-0.54698611 
-4096 -0 -0 0 0 4096 4096 0 0 0 0 4096 0 0 1:-0.32288053 2:-0.70593961 
-4096 -0 -0 0 0 4096 4096 0 0 0 0 0 0 0 1:-0.37084392 2:-0.83562266 
-0 -0 -0 0 0 0 4096 0 0 0 0 0 0 0 1:-0.26987572 2:-0.90431599 
-4096 -0 -0 0 0 4096 4096 0 0 0 0 0 0 0 1:-0.32744966 2:-0.88655076 
-4096 -0 -0 0 0 4096 4096 0 0 0 0 0 0 0 1:-0.37725361 2:-0.74055456 
-4096 -0 -0 0 0 4096 4096 0 0 0 0 0 0 0 1:-0.28525866 2:-0.83805359 
-4096 -0 -0 0 0 4096 4096 0 0 0 0 0 0 0 1:-0.31499161 2:-0.80991022 
-0 -0 -0 0 0 0 4096 0 0 0 0 0 0 0 1:-0.22662299 2:-0.92977543 
-4096 -0 -0 0 0 4096 4096 0 0 0 0 0 0 0 1:-0.26988393 2:-0.82221894 
-0 -0 -0 0 0 0 3416.012507424717 0 0 0 4096 0 0 0 1:-0.05884636 2:-0.63836329 
-4096 -0 -0 0 0 0 4096 0 0 0 4096 4096 0 1194.777107947127 1:-0.11494413 2:-0.55707383 
-1230.134781371813 -0 -0 0 0 0 4096 0 0 0 1112.95688701747 0 0 0 1:-0.081408458 2:-0.69099779 
-4096 -0 -0 0 0 1012.597120381247 4096 0 0 4096 4096 4096 0 4096 1:-0.17949514 2:-0.45561585 
-4096 -0 -0 0 0 4096 4096 0 0 0 0 0 0 0 1:-0.26276855 2:-0.80010018 
-0 -0 -0 0 0 0 4096 0 0 0 0 0 0 0 1:-0.1102712 2:-0.76186849 
-4096 -0 -0 0 0 4096 4096 0 0 0 0 0 0 0 1:-0.31243372 2:-0.89017912 
-4096 -0 -0 0 0 0 4096 0 0 0 4096 4096 0 4096 1:-0.13454731 2:-0.53711912 
-4096 -0 -0 0 0 4096 4096 0 0 0 0 0 0 0 1:-0.26726009 2:-0.8262924 
-0 -0 -0 0 0 0 4096 0 0 0 0 0 0 0 1:-0.25595896 2:-0.87809303 
-4096 -0 -0 0 0 0 4096 0 0 0 0 915.9983552415137 0 0 1:-0.18455816 2:-0.6689815 
-4096 -12.12104853631029 -3766.659097959608 1126.536751475091 216.1870086827314 4096 4096 0 0 312.7813699433491 410.5550960547216 0 0 0 1:-0.61324137 2:-0.81306436 
-4096 -0 -0 0 0 4096 4096 0 0 0 0 0 0 0 1:-0.47304211 2:-0.84709608 
-0 -0 -0 0 0 0 4096 0 0 0 0 0 0 0 1:-0.16176768 2:-0.87540282 
-4096 -0 -0 0 0 0 4096 0 0 0 0 0 0 0 1:-0.2792768 2:-0.87225405 
-0 -0 -0 0 0 0 4096 0 0 0 0 0 0 0 1:-0.069932051 2:-0.75135047 
-0 -0 -0 0 0 0 4096 0 0 4096 4096 4096 0 4096 1:-0.080764841 2:-0.49826967 
-0 -0 -0 0 0 0 0 4096 170.8632132459216 4096 4096 4096 0 4096 1:-0.028295923 2:-0.44416119 
-4096 -0 -0 0 0 4096 4096 0 0 640.2817680627816 4096 4096 0 1601.920856324675 1:-0.44150473 2:-0.61967856 
-4096 -0 -0 0 0 4096 4096 0 0 0 0 0 0 0 1:-0.28556358 2:-0.7821453 
-4096 -0 -0 0 0 0 4096 0 0 0 0 0 0 0 1:-0.21392656 2:-0.79758589 
-0 -0 -0 0 0 0 4096 0 0 0 0 0 0 0 1:-0.25564463 2:-0.90389559 
-4096 -0 -0 0 0 4096 4096 0 0 0 0 0 0 0 1:-0.35615598 2:-0.78741996 
-4096 -0 -0 0 0 4096 4096 0 0 0 0 0 0 0 1:-0.33510533 2:-0.88402067 
-4096 -0 -0 0 0 4096 4096 0 0 0 0 0 0 0 1:-0.3560389 2:-0.87745213 
-4096 -0 -0 0 0 4096 4096 0 0 0 0 0 0 0 1:-0.36172652 2:-0.77846311 
-4096 -0 -0 0 0 4096 4096 0 0 0 0 0 0 0 1:-0.41842249 2:-0.88635985 
-4096 -0 -0 0 0 0 4096 0 0 0 0 0 0 0 1:-0.20449345 2:-0.76652937 
-0 -0 -4096 -0 0 0 0 0 0 0 0 0 0 0 1:-0.622202 2:-0.88219522 
-0 -0 -4096 -0 0 4096 0 0 0 0 0 0 0 0 1:-0.6203398 2:-0.89884655 
-0 -0 -4096 -0 4096 0 0 0 0 0 0 0 0 0 1:-0.63512737 2:-0.95624277 
-0 -0 -4096 -0 0 0 0 0 0 0 0 0 0 0 1:-0.62990455 2:-0.93290696 
-0 -0 -4096 -0 4096 4096 0 0 0 0 0 0 0 0 1:-0.62370619 2:-0.95258958 
-0 -0 -4096 -0 193.1436998674772 4096 4096 0 0 0 0 0 0 0 1:-0.49221251 2:-0.95962504 
-0 -0 -4096 -0 0 4096 0 0 0 0 0 0 0 0 1:-0.56806599 2:-0.9391329 
-0 -0 -4096 -0 0 4096 4096 0 0 0 0 0 0 0 1:-0.52698546 2:-0.91326923 
-0 -0 -4096 -0 0 4096 0 0 0 0 0 0 0 0 1:-0.61874599 2:-0.94760762 
-0 -0 -4096 -0 0 4096 1995.319856081555 0 0 0 0 0 0 0 1:-0.56048926 2:-0.92409566 
-0 -0 -4096 -0 0 0 0 0 0 0 0 0 0 0 1:-0.62597971 2:-0.91921316 
-0 -0 -4096 -0 4096 2459.867529105482 0 0 0 0 0 0 0 0 1:-0.63273415 2:-0.97277248 
-0 -0 -4096 -0 0 0 0 0 0 0 0 0 0 0 1:-0.63123557 2:-0.91279056 
-0 -0 -4096 -0 4096 0 0 0 0 0 0 0 0 0 1:-0.64060812 2:-0.9425113 
-0 -0 -3990.520572490843 -0 0 965.5607288556199 0 0 0 0 0 0 0 0 1:-0.61994901 2:-0.87548644 
-0 -0 -4096 -0 0 0 0 0 0 0 0 0 0 0 1:-0.62264937 2:-0.89919262 
-0 -0 -4096 -0 4096 0 0 0 0 0 0 0 0 0 1:-0.6304068 2:-0.95259061 
-0 -0 -4096 -0 2905.864119612489 4096 0 0 0 0 0 0 0 0 1:-0.62191704 2:-0.94876196 
-0 -0 -4096 -0 4096 0 0 0 0 0 0 0 0 0 1:-0.62971934 2:-0.95324426 
-0 -0 -4096 -0 0 4096 4096 0 0 0 0 0 0 0 1:-0.55485483 2:-0.93167878 
-4096 -0 -4096 -0 0 4096 4096 8.080556967024606 1.531812896449825 12.67650581153301 26.96538600010286 24.28436235733463 5.339333389133003 14.74715248343527 1:-0.49957941 2:-0.91019155 
-0 -0 -4096 -0 0 4096 4096 0 0 0 0 0 0 0 1:-0.52493533 2:-0.90442881 
-0 -33.48030660118497 -1026.029899863391 -0 4096 0 0 0 0 0 0 0 0 0 1:-0.74067996 2:-0.96035713 
-0 -0 -4096 -0 0 4096 0 0 0 0 0 0 0 0 1:-0.59761027 2:-0.93110268 
-0 -0 -4096 -0 0 0 0 0 0 0 0 0 0 0 1:-0.63491683 2:-0.94217895 
-0 -0 -4096 -0 4096 4096 0 0 0 0 0 0 0 0 1:-0.60809752 2:-0.97250411 
-0 -0 -4096 -0 0 4096 0 0 0 0 0 0 0 0 1:-0.59814302 2:-0.92142494 
-0 -0 -4096 -0 4096 0 0 0 0 0 0 0 0 0 1:-0.64232145 2:-0.94822005 
-0 -0 -4096 -0 0 4096 0 0 0 0 0 0 0 0 1:-0.59244926 2:-0.91264749 
-0 -0 -4096 -0 0 4096 0 0 0 0 0 0 0 0 1:-0.61139181 2:-0.90627724 
-0 -0 -4096 -0 0 4096 0 0 0 0 0 0 0 0 1:-0.57118978 2:-0.91058398 
-0 -0 -4096 -0 0 4096 4096 0 0 0 0 0 0 0 1:-0.51299961 2:-0.92020126 
-0 -0 -4096 -0 0 4096 0 0 0 0 0 0 0 0 1:-0.57557286 2:-0.93615049 
-0 -0 -4096 -0 0 4096 4096 0 0 0 0 0 0 0 1:-0.5483223 2:-0.90331433 
-0 -0 -4096 -0 0 4096 0 0 0 0 0 0 0 0 1:-0.59273236 2:-0.908418 
-0 -0 -4096 -0 0 4096 0 0 0 0 0 0 0 0 1:-0.59487112 2:-0.88443753 
-0 -0 -4096 -0 0 4096 0 0 0 0 0 0 0 0 1:-0.60784335 2:-0.89702716 
-0 -0 -4096 -0 0 4096 0 0 0 0 0 0 0 0 1:-0.58272946 2:-0.90197277 
-0 -0 -4096 -0 0 4096 0 0 0 0 0 0 0 0 1:-0.5849821 2:-0.92865835 
-0 -0 -4096 -0 0 0 0 0 0 0 0 0 0 0 1:-0.62873284 2:-0.89780487 
-0 -0 -4096 -0 0 4096 0 0 0 0 0 0 0 0 1:-0.59628496 2:-0.91446057 
-0 -0 -4096 -0 0 4096 0 0 0 0 0 0 0 0 1:-0.59780956 2:-0.90475751 
-0 -0 -4096 -0 0 0 0 0 0 0 0 0 0 0 1:-0.62869737 2:-0.92082117 
-0 -0 -4096 -0 0 0 0 0 0 0 0 0 0 0 1:-0.62851281 2:-0.91961043 
-0 -0 -4096 -0 0 4096 0 0 0 0 0 0 0 0 1:-0.58216908 2:-0.93169995 
-0 -0 -4096 -0 0 4096 4096 0 0 0 0 0 0 0 1:-0.54787631 2:-0.91001164 
-0 -0 -4096 -0 0 4096 4096 0 0 0 0 0 0 0 1:-0.55862362 2:-0.94641456 
-0 -0 -4096 -0 0 4096 4096 0 0 0 0 0 0 0 1:-0.54279926 2:-0.91952554 
-3610.783435653868 -0 -4096 -0 0 4096 4096 0 0 0 0 0 0 0 1:-0.53961536 2:-0.89046634 
-0 -0 -4096 -0 0 4096 0 0 0 0 0 0 0 0 1:-0.56381222 2:-0.89185829 
-0 -0 -4096 -0 0 4096 0 0 0 0 0 0 0 0 1:-0.56313174 2:-0.89694181 
-2614.115796056402 -0 -4096 -1490.286808098194 0 4096 403.5720276380928 0 3.003076979351814 0 28.15633168043555 0 0 0 1:-0.55870508 2:-0.87304475 
-0 -0 -4096 -0 0 4096 0 0 0 0 0 0 0 0 1:-0.58196476 2:-0.93139237 
-0 -0 -4096 -0 0 4096 0 0 0 0 0 0 0 0 1:-0.58218439 2:-0.91779169 
-0 -0 -0 -0 3565.790823832467 0 0 0 0 0 0 0 0 0 1:-0.67079489 2:-0.92955858 
-0 -0 -4096 -0 0 0 0 0 0 0 0 0 0 0 1:-0.6273062 2:-0.93794921 
-0 -0 -4096 -0 0 0 0 0 0 0 0 0 0 0 1:-0.6273416 2:-0.9183941 
-0 -133.0300358400206 -4096 -0 -0 0 0 0 0 0 0 0 0 0 1:-0.86136607 2:-0.98918678 
-0 -0 -0 -0 -2568.798643312436 0 0 0 0 0 0 0 0 0 1:-0.69681774 2:-0.97849391 
-0 -0 -4096 -0 -4096 4096 0 0 0 0 0 0 0 0 1:-0.63539903 2:-0.93923335 
-0 -0 -4096 -0 -4096 4096 4096 0 0 0 0 0 0 0 1:-0.59898418 2:-0.9524474 
-2089.200263469691 -0 -4096 -377.5228713631034 -4096 4096 4096 7.304823740373616 4.226242773197749 11.14105602596736 41.60149175271022 20.11890591591589 4.927861813689453 12.74940004042793 1:-0.52298675 2:-0.92823447 
-0 -0 -4096 -0 -4096 4096 0 0 0 0 0 0 0 0 1:-0.67103235 2:-0.95825244 
-0 -0 -4096 -0 -4096 1513.372689518384 0 0 0 0 0 0 0 0 1:-0.6878726 2:-0.97244245 
-0 -0 -4096 -0 -4096 4096 0 0 0 0 0 0 0 0 1:-0.66010837 2:-0.95003449 
-0 -0 -4096 -0 -4096 4096 1246.708310685786 0 0 0 0 0 0 0 1:-0.63556222 2:-0.95361536 
-0 -0 -4096 -0 -4096 4096 4096 0 0 0 0 0 0 0 1:-0.58488312 2:-0.92581384 
-0 -0 -3946.793469086775 -0 -4096 0 0 0 0 0 0 0 0 0 1:-0.7059607 2:-0.97266062 
-0 -0 -4096 -0 -0 0 0 0 0 0 0 0 0 0 1:-0.71020666 2:-0.97129371 
-0 -0 -0 -0 -4096 0 0 0 0 0 0 0 0 0 1:-0.69382324 2:-0.97950012 
-4096 -0 -0 -4096 -0 -54.97254218427137 4096 0 0 0 0 0 0 0 1:-0.19004171 2:-0.81944324 
-4096 -0 -0 -4096 -0 -0 4096 0 0 0 0 0 0 0 1:-0.31068793 2:-0.8258928 
-4096 -0 -0 -4096 -0 -0 4096 0 0 0 0 0 0 0 1:-0.37600427 2:-0.82805997 
-4096 -0 -0 -4096 -0 -0 4096 0 0 0 0 0 0 0 1:-0.30890555 2:-0.86693037 
-4096 -0 -0 -4096 -0 -0 4096 0 0 0 0 0 0 0 1:-0.33917739 2:-0.83686149 
-4096 -0 -0 -4096 -0 -0 4096 0 0 0 0 0 0 0 1:-0.32983609 2:-0.79536587 
-4096 -0 -0 -4096 -0 -0 4096 0 0 0 0 0 0 0 1:-0.36436158 2:-0.82477348 
-4096 -0 -0 -4096 -0 -0 4096 0 0 0 0 4096 0 0 1:-0.27944135 2:-0.72005713 
-4096 -0 -0 -4096 -0 -0 4096 0 0 0 1385.492120503627 542.9734403260358 0 0 1:-0.30892377 2:-0.70526795 
-0 -0 -4096 -0 -4096 -4096 0 0 0 0 0 0 0 0 1:-0.60050215 2:-0.94244818 
-0 -0 -4096 -0 -4096 -0 0 0 0 0 0 0 0 0 1:-0.54608601 2:-0.88426863 
-0 -0 -4096 -0 -4096 -4096 0 0 0 0 0 0 0 0 1:-0.62642777 2:-0.95055925 
-0 -0 -4096 -0 -4096 -0 0 0 0 0 0 0 0 0 1:-0.54422064 2:-0.90860981 
-0 -0 -4096 -0 -4096 -0 0 0 0 0 0 0 0 0 1:-0.55056754 2:-0.92128055 
-0 -0 -4096 -0 -4096 -0 0 0 0 0 0 0 0 0 1:-0.5710698 2:-0.9126896 
-0 -0 -4096 -0 -4096 -4096 0 0 0 0 0 0 0 0 1:-0.60666936 2:-0.93683118 
-0 -0 -4096 -0 -4096 -4096 0 0 0 0 0 0 0 0 1:-0.60761638 2:-0.94465285 
-0 -0 -4096 -0 -4096 -0 0 0 0 0 0 0 0 0 1:-0.53960155 2:-0.93416299 
-0 -0 -4096 -0 -4096 -0 0 0 0 0 0 0 0 0 1:-0.57215375 2:-0.94633431 
-0 -0 -4096 -0 -4096 -0 0 0 0 0 0 0 0 0 1:-0.58599533 2:-0.9387656 
-0 -19.00140665454062 -4096 -1728.275036641759 -4096 -4096 0 0 0 0 361.9380324557637 0 0 0 1:-0.6606914 2:-0.93860221 
-0 -0 -4096 -0 -4096 -4096 0 0 0 0 0 0 0 0 1:-0.62885431 2:-0.94932389 
-0 -0 -4096 -0 -4096 -919.8467655454601 0 0 0 0 0 0 0 0 1:-0.568459 2:-0.94936349 
-0 -0 -0 -0 -0 -0 4096 0 0 0 0 0 0 0 1:-0.51681712 2:-0.92909569 
-0 -0 -4096 -0 -4096 -538.5533817886523 4096 0 0 0 0 0 0 0 1:-0.53870343 2:-0.9569256 
-0 -0 -4096 -0 -4096 -4096 0 0 0 0 0 0 0 0 1:-0.628391 2:-0.94810041 
-0 -0 -4096 -0 -4096 -0 0 0 0 0 0 0 0 0 1:-0.61199151 2:-0.92858056 
-0 -0 -0 -0 -0 -0 4096 0 0 0 0 0 0 0 1:-0.44774138 2:-0.89490624 
-4096 -0 -0 -4096 -0 -0 4096 0 0 0 2338.368997624447 4096 0 0 1:-0.26116655 2:-0.72066447 
-0 -0 -0 -0 -0 -0 4096 0 0 0 0 0 0 0 1:-0.46119541 2:-0.89821407 
-0 -0 -0 -0 -0 -0 4096 0 0 0 0 0 0 0 1:-0.43871466 2:-0.90618099 
-4096 -0 -0 -4096 -0 -0 4096 72.79313426878071 0 280.9003351376581 0 1806.784060363109 16.35202377407122 1380.422405054174 1:-0.18299088 2:-0.76620534 
-4096 -0 -0 -4096 -0 -0 4096 0 0 0 0 0 0 0 1:-0.34865494 2:-0.86732773 
-0 -0 -0 -0 -0 -0 4096 0 0 0 0 0 0 0 1:-0.44710571 2:-0.90618182 
-0 -0 -0 -0 -0 -0 4096 0 0 0 0 0 0 0 1:-0.48201491 2:-0.92041444 
-4096 -0 -0 -0 -0 -0 4096 0 0 0 0 0 0 0 1:-0.44604438 2:-0.86739516 
-4096 -0 -0 -0 -0 -0 0 0 0 0 0 0 0 0 1:-0.51740241 2:-0.82083269 
-4096 -0 -0 -0 -0 -0 0 0 0 0 0 0 0 0 1:-0.47641228 2:-0.7550175 
-4096 -0 -0 -0 -0 -0 0 0 0 0 0 0 0 0 1:-0.43649084 2:-0.74945445 
-4096 -0 -0 -0 -0 -0 0 0 0 0 0 0 0 0 1:-0.49106611 2:-0.79033878 
-4096 -0 -0 -0 -0 -0 0 0 0 0 0 0 0 0 1:-0.50756811 2:-0.85528709 
-4096 -0 -0 -0 -0 -0 0 0 0 0 0 0 0 0 1:-0.46990746 2:-0.74073493 
-4096 -0 -0 -0 -0 -0 0 0 0 0 0 0 0 0 1:-0.47458499 2:-0.79875672 
-4096 -0 -0 -0 -0 -0 4096 0 0 0 0 0 0 0 1:-0.43070105 2:-0.74260924 
-4096 -0 -0 -0 -0 -0 4096 0 0 0 0 88.28463280836685 0 0 1:-0.43840654 2:-0.5293235 
-4096 -0 -0 -0 -0 -0 4096 0 0 0 0 0 0 0 1:-0.44301922 2:-0.84653583 
-4096 -0 -0 -0 -0 -0 0 0 0 0 0 0 0 0 1:-0.48288211 2:-0.8574888 
-4096 -0 -0 -0 -0 -0 0 0 0 0 0 0 0 0 1:-0.46494874 2:-0.83723696 
-4096 -0 -0 -0 -0 -0 4096 0 0 0 0 0 0 0 1:-0.39800722 2:-0.83281208 
-4096 -0 -0 -0 -0 -0 4096 0 0 0 0 0 0 0 1:-0.38974667 2:-0.79975966 
-4096 -0 -0 -0 -0 -0 4096 0 0 0 0 0 0 0 1:-0.43412457 2:-0.84215514 
-4096 -0 -0 -0 -0 -0 0 0 0 0 0 0 0 0 1:-0.51478792 2:-0.81161923 
-4096 -0 -0 -0 -0 -0 4096 0 0 0 0 0 0 0 1:-0.42527081 2:-0.8317693 
-0 -0 -4096 -0 -4096 -0 0 0 0 0 0 0 0 0 1:-0.57171895 2:-0.94585246 
-0 -0 -4096 -0 -0 -0 0 0 0 0 0 0 0 0 1:-0.52292066 2:-0.89941593 
-0 -0 -0 -0 -0 -0 4096 0 0 0 0 0 0 0 1:-0.48918677 2:-0.90563656 
-0 -0 -0 -0 -0 -0 4096 0 0 0 0 0 0 0 1:-0.49013936 2:-0.90467304 
-0 -0 -0 -0 -0 -0 4096 0 0 0 0 0 0 0 1:-0.48618528 2:-0.89485912 
-0 -0 -0 -0 -0 -0 4096 0 0 0 0 0 0 0 1:-0.4670573 2:-0.88188347 
-0 -0 -4096 -0 -4096 -0 0 0 0 0 0 0 0 0 1:-0.54727754 2:-0.94809729 
-0 -0 -4096 -0 -4096 -0 0 0 0 0 0 0 0 0 1:-0.55146723 2:-0.94421822 
-0 -0 -0 -0 -0 -0 4096 0 0 0 0 0 0 0 1:-0.46410545 2:-0.87513211 
-0 -0 -4096 -0 -4096 -0 0 0 0 0 0 0 0 0 1:-0.5424836 2:-0.92584666 
-0 -0 -4096 -0 -0 -0 0 0 0 0 0 0 0 0 1:-0.53015735 2:-0.92413903 
-0 -0 -4096 -0 -4096 -0 0 0 0 0 0 0 0 0 1:-0.54367932 2:-0.88615992 
-0 -0 -4096 -0 -4096 -0 0 0 0 0 0 0 0 0 1:-0.54865847 2:-0.94105475 
-0 -0 -4096 -0 -4096 -0 0 0 0 0 0 0 0 0 1:-0.53515467 2:-0.91165067 
-0 -0 -4096 -0 -4096 -0 0 0 0 0 0 0 0 0 1:-0.59701899 2:-0.90839117 
-0 -0 -0 -0 -0 -0 4096 0 0 0 0 0 0 0 1:-0.46819934 2:-0.94997864 
-0 -0 -0 -0 -0 -0 4096 0 0 0 0 0 0 0 1:-0.44042371 2:-0.92705206 
-0 -0 -0 -2837.536090979609 -0 -0 4096 0 0 0 0 0 0 0 1:-0.39994782 2:-0.89079049 
-0 -0 -0 -0 -0 -0 4096 0 0 0 0 0 0 0 1:-0.44484602 2:-0.91850205 
-0 -0 -0 -0 -0 -0 4096 0 0 0 0 0 0 0 1:-0.43569559 2:-0.89765193 
-0 -0 -0 -0 -0 -0 4096 0 0 0 0 0 0 0 1:-0.40573188 2:-0.90441759 
-0 -0 -0 -0 -0 -0 4096 0 0 0 0 0 0 0 1:-0.42925786 2:-0.91466553 
-0 -0 -0 -4096 -0 -0 4096 0 0 0 0 0 0 0 1:-0.35295628 2:-0.88490558 
-4096 -0 -0 -4096 -0 -0 4096 0 0 0 0 0 0 0 1:-0.34366557 2:-0.82152863 
-0 -0 -0 -4096 -0 -0 4096 0 0 0 0 0 0 0 1:-0.4067562 2:-0.92548556 
-0 -0 -0 -4096 -0 -0 4096 0 0 0 0 0 0 0 1:-0.33341136 2:-0.88609254 
-0 -0 -0 -4096 -0 -0 4096 0 0 0 0 0 0 0 1:-0.37177792 2:-0.90767787 
-4096 -0 -0 -0 -0 -0 0 0 0 0 0 0 0 0 1:-0.52204527 2:-0.72671023 
-4096 -0 -0 -0 -0 -0 0 0 0 0 0 0 0 0 1:-0.45610373 2:-0.63972837 
-4096 -0 -0 -0 -0 -0 0 0 0 0 1441.446782369412 0 0 0 1:-0.43173108 2:-0.60348821 
-4096 -0 -0 -0 -0 -0 0 0 0 0 0 0 0 0 1:-0.47086894 2:-0.75223519 
-0 -0 -0 -2821.477210598121 -0 -0 0 0 0 0 0 0 0 0 1:-0.5101369 2:-0.51667957 
-4096 -0 -0 -0 -0 -0 0 0 0 0 0 0 0 0 1:-0.44316952 2:-0.76162916 
-4096 -0 -0 -0 -0 -0 4096 0 0 0 0 0 0 0 1:-0.43072594 2:-0.74069831 
-4096 -0 -0 -0 -0 -0 0 0 0 0 0 0 0 0 1:-0.482743 2:-0.70909618 
-4096 -0 -0 -1285.533519128493 -0 -0 0 0 0 0 0 0 0 0 1:-0.54792025 2:-0.66590527 
-4096 -0 -0 -0 -0 -0 4096 0 0 0 0 0 0 0 1:-0.41187003 2:-0.82899582 
-4096 -0 -0 -4096 -0 -0 4096 0 0 0 0 0 0 0 1:-0.36681578 2:-0.84603124 
-0 -0 -0 -0 -0 -0 4096 0 0 0 0 0 0 0 1:-0.43991665 2:-0.92770539 
-0 -0 -0 -0 -0 -0 4096 0 0 0 0 0 0 0 1:-0.46684052 2:-0.90320844 
-0 -0 -0 -0 -0 -0 4096 0 0 0 0 0 0 0 1:-0.46480176 2:-0.87515461 
-0 -0 -0 -0 -0 -0 4096 0 0 0 0 0 0 0 1:-0.4847743 2:-0.89461309 
-4096 -0 -0 -0 -0 -0 4096 0 0 0 0 0 0 0 1:-0.43369531 2:-0.85617771 
-4096 -0 -0 -4096 -0 -0 4096 0 0 0 0 0 0 0 1:-0.33551859 2:-0.85864824 
-3002.118874340251 -0 -0 -4096 -0 -0 4096 0 0 0 0 0 0 0 1:-0.35556776 2:-0.87741374 
-4096 -0 -0 -4096 -0 -0 4096 0 0 0 0 0 0 0 1:-0.34697139 2:-0.83378947 
-4096 -0 -0 -4096 -0 -0 4096 0 0 0 0 0 0 0 1:-0.33097521 2:-0.82640148 
-4096 -0 -0 -4096 -0 -0 4096 0 0 0 0 0 0 0 1:-0.35720959 2:-0.8505081 
-4096 -0 -0 -4096 -0 -0 4096 0 0 0 0 0 0 0 1:-0.3570022 2:-0.84808895 
-4096 -0 -0 -4096 -0 -0 4096 0 0 0 0 0 0 0 1:-0.33682958 2:-0.82281377 
-4096 -0 -0 -4096 -0 -0 4096 0 0 0 0 0 0 0 1:-0.38855053 2:-0.86779735 
-4096 -0 -0 -0 -0 -0 4096 0 0 0 0 0 0 0 1:-0.40734284 2:-0.82440757 
-4096 -0 -0 -0 -0 -0 1694.201676170743 0 0 0 0 0 0 0 1:-0.45323094 2:-0.81553203 
-4096 -0 -0 -0 -0 -0 4096 0 0 0 0 0 0 0 1:-0.4339616 2:-0.77959267 
-0 -0 -4096 -0 -4096 -0 0 0 0 0 0 0 0 0 1:-0.56760818 2:-0.9235521 
-0 -0 -4096 -0 -4096 -0 0 0 0 0 0 0 0 0 1:-0.57900237 2:-0.91889024 
-4096 -0 -4096 -0 -2823.827127158067 -0 0 0 0 0 0 0 0 0 1:-0.54207051 2:-0.82928886 
-0 -0 -4096 -0 -0 -0 0 0 0 0 0 0 0 0 1:-0.52900319 2:-0.88395349 
-4096 -0 -0 -0 -0 -0 4096 0 0 0 0 0 0 0 1:-0.38646281 2:-0.78525681 
-0 -0 -4096 -0 -4096 -0 0 0 0 0 0 0 0 0 1:-0.56251615 2:-0.89631348 
-0 -0 -4096 -0 -4096 -0 0 0 0 0 0 0 0 0 1:-0.54049764 2:-0.89585904 
-0 -0 -4096 -0 -4096 -0 0 0 0 0 0 0 0 0 1:-0.55679135 2:-0.91401449 
-0 -0 -0 -0 -0 -0 4096 0 0 0 0 0 0 0 1:-0.45120132 2:-0.87925766 
-0 -0 -0 -0 -0 -0 4096 0 0 0 0 0 0 0 1:-0.45777135 2:-0.89701013 
-0 -0 -0 -0 -0 -0 4096 0 0 0 0 0 0 0 1:-0.46690446 2:-0.92710933 
-4096 -0 -0 -0 -0 -0 4096 0 0 0 0 0 0 0 1:-0.38880096 2:-0.82344062 
-4096 -0 -0 -0 -0 -0 4096 0 0 0 0 0 0 0 1:-0.45745918 2:-0.8524863 
-0 -0 -0 -0 -0 -0 4096 0 0 0 0 0 0 0 1:-0.43308562 2:-0.87509378 
-0 -0 -0 -0 -0 -0 4096 0 0 0 0 0 0 0 1:-0.41079528 2:-0.8793177 
-4096 -0 -0 -0 -0 -0 4096 0 0 0 0 0 0 0 1:-0.42159148 2:-0.86901043 
-4096 -0 -0 -0 -0 -0 4096 0 0 0 0 0 0 0 1:-0.43154298 2:-0.8262688 
-4096 -0 -0 -0 -0 -0 0 0 0 0 0 0 0 0 1:-0.48926135 2:-0.81580774 
-4096 -0 -0 -0 -0 -0 4096 0 0 0 0 0 0 0 1:-0.42614797 2:-0.74551304 
-4096 -0 -0 -0 -0 -0 0 0 0 0 0 0 0 0 1:-0.49694339 2:-0.83604808 
-4096 -0 -0 -0 -0 -0 0 0 0 0 0 0 0 0 1:-0.53168214 2:-0.79975429 
-0 -0 -4096 -0 -4096 -0 0 0 0 0 0 0 0 0 1:-0.56469062 2:-0.86523932 
-4096 -0 -0 -0 -0 -0 0 0 0 0 0 0 0 0 1:-0.53040952 2:-0.80049007 
-4096 -0 -0 -0 -0 -0 0 0 0 0 0 0 0 0 1:-0.52446484 2:-0.79498837 
-4096 -0 -0 -0 -0 -0 0 0 0 0 0 0 0 0 1:-0.49316859 2:-0.83644536 
-0 -0 -0 -0 -0 -0 132.3774772586735 0 0 0 0 0 0 0 1:-0.51872652 2:-0.92367906 
-0 -0 -0 -0 -0 -0 4096 0 0 0 0 0 0 0 1:-0.43572014 2:-0.87708274 
-4096 -0 -0 -0 -0 -0 4096 0 0 0 0 0 0 0 1:-0.45155946 2:-0.85784778 
-0 -0 -0 -0 -0 -0 4096 0 0 0 0 0 0 0 1:-0.45867339 2:-0.86976221 
-0 -0 -0 -0 -0 -0 4096 0 0 0 0 0 0 0 1:-0.4734858 2:-0.89598499 
-4096 -0 -0 -0 -0 -0 4096 0 0 0 0 0 0 0 1:-0.45636155 2:-0.8641888 
-0 -0 -0 -0 -0 -0 4096 0 0 0 0 0 0 0 1:-0.49628201 2:-0.90400612 
-0 -0 -4096 -0 -0 -0 0 0 0 0 0 0 0 0 1:-0.52184873 2:-0.92561777 
-4096 -0 -0 -933.9789437283373 -0 -0 4096 0 0 0 0 0 0 0 1:-0.36371281 2:-0.78539127 
-4096 -0 -0 -0 -0 -0 4096 0 0 0 0 0 0 0 1:-0.35987761 2:-0.76052341 
-4096 -0 -0 -0 -0 -0 4096 0 0 0 0 0 0 0 1:-0.36923887 2:-0.78973692 
-4096 -0 -0 -4096 -0 -0 4096 0 0 0 0 0 0 0 1:-0.37090849 2:-0.86020347 
-4096 -0 -0 -4096 -0 -0 4096 0 0 0 0 0 0 0 1:-0.31939253 2:-0.84417533 
-4096 -0 -0 -4096 -0 -0 4096 0 0 0 0 0 0 0 1:-0.29976246 2:-0.75526978 
-4096 -0 -0 -0 -0 -0 4096 0 0 0 0 0 0 0 1:-0.37262802 2:-0.75449127 
-4096 -0 -0 -4096 -0 -0 4096 0 0 0 4096 0 0 0 1:-0.32164098 2:-0.69770752 
-4096 -0 -0 -3693.796319304919 -0 -0 4096 0 20.47292744327825 1903.608143523084 4096 4096 6.57369258702756 1460.403252521442 1:-0.30828275 2:-0.56863477 
-0 -0 -116.8405487847788 -0 -0 -0 0 0 0 0 0 0 0 0 1:-0.52212933 2:-0.90255343 
-4096 -0 -0 -0 -0 -0 0 0 0 0 0 0 0 0 1:-0.4670134 2:-0.79991777 
-4096 -0 -0 -0 -0 -0 4096 0 0 0 0 0 0 0 1:-0.40560036 2:-0.80456509 
-4096 -0 -0 -0 -0 -0 4096 0 0 0 0 0 0 0 1:-0.43685672 2:-0.83194288 
-4096 -0 -0 -0 -0 -0 0 0 0 0 0 0 0 0 1:-0.50826397 2:-0.83052847 
-0 -0 -4096 -0 -4096 -0 0 0 0 0 0 0 0 0 1:-0.56509268 2:-0.88861268 
-4096 -0 -0 -0 -0 -0 4096 0 0 0 0 0 0 0 1:-0.47567069 2:-0.86440131 
-743.7662221852812 -0 -0 -0 -0 -0 0 0 0 0 0 0 0 0 1:-0.49919198 2:-0.86090646 
-4096 -0 -0 -0 -0 -0 4096 0 0 0 0 0 0 0 1:-0.44773357 2:-0.85072496 
-0 -0 -0 -0 -0 -0 4096 0 0 0 0 0 0 0 1:-0.47480696 2:-0.94344646 
-0 -0 -0 -0 -0 -0 4096 0 0 0 0 0 0 0 1:-0.48072851 2:-0.93676536 
-0 -0 -0 -0 -0 -0 4096 0 0 0 0 0 0 0 1:-0.45559066 2:-0.90353271 
-0 -0 -0 -0 -0 -0 4096 0 0 0 0 0 0 0 1:-0.49221439 2:-0.954348 
-0 -0 -0 -0 -0 -0 4096 0 0 0 0 0 0 0 1:-0.45583013 2:-0.92466334 
-4096 -0 -0 -0 -0 -0 4096 0 0 0 0 0 0 0 1:-0.44373698 2:-0.81332268 
-0 -0 -0 -0 -0 -0 4096 0 0 0 0 0 0 0 1:-0.4747653 2:-0.92298186 
-0 -0 -0 -0 -0 -0 4096 0 0 0 0 0 0 0 1:-0.42443985 2:-0.93976768 
-0 -0 -0 -0 -0 -0 4096 0 0 0 0 0 0 0 1:-0.4624911 2:-0.94478083 
-0 -0 -4096 -0 -4096 -0 0 0 0 0 0 0 0 0 1:-0.54846903 2:-0.87263343 
-0 -0 -4096 -0 -4096 -0 0 0 0 0 0 0 0 0 1:-0.61194808 2:-0.92151056 
-4096 -0 -0 -0 -0 -0 0 0 0 0 0 0 0 0 1:-0.49577073 2:-0.82572197 
-0 -0 -4096 -0 -4096 -0 0 0 0 0 0 0 0 0 1:-0.6249893 2:-0.89885759 
-4096 -0 -0 -0 -0 -0 0 0 0 0 0 0 0 0 1:-0.4990289 2:-0.76798544 
-0 -0 -4096 -0 -4096 -0 0 0 0 0 0 0 0 0 1:-0.54521349 2:-0.8887288 
-0 -0 -4096 -0 -601.6011308030359 -0 0 0 0 0 0 0 0 0 1:-0.53564359 2:-0.88954341 
-0 -0 -4096 -0 -4096 -0 0 0 0 0 0 0 0 0 1:-0.58236298 2:-0.89439251 
-0 -0 -0 -4096 -0 -0 -0 0 0 0 0 0 0 0 1:-0.26910757 2:-0.83577332 
-0 -0 -0 -0 -0 -0 -4096 0 0 0 0 0 0 0 1:-0.4036403 2:-0.87461905 
-0 -0 -0 -0 -0 -0 -4096 0 0 0 0 0 0 0 1:-0.35242252 2:-0.87335518 
-4096 -0 -0 -0 -0 -0 -0 0 0 0 0 0 0 0 1:-0.31562476 2:-0.43181117 
-4096 -0 -0 -0 -0 -0 -4096 0 0 0 0 0 0 0 1:-0.35494205 2:-0.67782657 
-4096 -0 -0 -0 -0 -0 -4096 0 0 0 0 0 0 0 1:-0.38099026 2:-0.77617075 
-4096 -0 -0 -0 -0 -0 -3221.612619861389 0 0 0 0 0 0 0 1:-0.31641661 2:-0.62255861 
-4096 -0 -0 -0 -0 -0 -4096 0 0 0 0 0 0 0 1:-0.31191694 2:-0.70971918 
-4096 -0 -0 -4096 -0 -0 -0 0 0 0 0 994.464685172706 0 0 1:-0.19869399 2:-0.72480164 
-0 -0 -0 -0 -0 -0 -4096 0 0 0 0 0 0 0 1:-0.44103875 2:-0.90608031 
-0 -0 -0 -0 -0 -0 -4096 0 0 0 0 0 0 0 1:-0.47718464 2:-0.91878689 
-0 -0 -4096 -0 -0 -0 -4096 0 0 0 0 0 0 0 1:-0.49884976 2:-0.91989324 
-0 -0 -0 -4096 -0 -0 -0 0 0 0 0 0 0 0 1:-0.3497356 2:-0.93413543 
-4096 -0 -0 -0 -0 -0 -4096 0 0 0 0 0 0 0 1:-0.37069903 2:-0.83810098 
-0 -0 -0 -0 -0 -0 -4096 0 0 0 0 0 0 0 1:-0.41787396 2:-0.9081729 
-0 -0 -0 -0 -0 -0 -4096 0 0 0 0 0 0 0 1:-0.42305404 2:-0.92485946 
-0 -0 -0 -0 -0 -0 -4096 0 0 0 0 0 0 0 1:-0.46486911 2:-0.90924867 
-0 -0 -0 -0 -0 -0 -4096 0 0 0 0 0 0 0 1:-0.49014939 2:-0.91135293 
-4096 -0 -0 -0 -0 -0 -4096 0 0 0 0 0 0 0 1:-0.35825087 2:-0.8031733 
-4096 -0 -0 -4096 -0 -0 -0 0 0 0 4096 0 0 0 1:-0.26227283 2:-0.59717015 
-4096 -0 -0 -4096 -0 -0 -0 0 0 0 3683.466926273445 4096 0 0 1:-0.22951392 2:-0.6573629 
-4096 -0 -0 -4096 -0 -0 -0 0 0 0 0 0 0 0 1:-0.28422332 2:-0.64271623 
-4096 -0 -0 -0 -0 -0 -4096 0 0 0 0 0 0 0 1:-0.35600684 2:-0.80612364 
-4096 -0 -0 -0 -0 -0 -4096 0 0 0 0 0 0 0 1:-0.36009453 2:-0.64909961 
-4096 -0 -0 -0 -0 -0 -4096 0 0 0 0 0 0 0 1:-0.32947471 2:-0.80327962 
-4096 -0 -0 -0 -0 -0 -4096 0 0 0 0 0 0 0 1:-0.39507153 2:-0.83884398 
-4096 -0 -0 -0 -0 -0 -0 0 0 0 0 0 0 0 1:-0.31031389 2:-0.61929241 
-4096 -0 -4096 -2666.113844466507 -4096 -0 -4096 0 0 0 0 0 0 0 1:-0.50466711 2:-0.90236133 
-4096 -0 -4096 -4096 -4096 -0 -4096 0 0 0 0 0 0 0 1:-0.52493092 2:-0.90926728 
-0 -0 -0 -0 -0 -0 -4096 0 0 0 0 0 0 0 1:-0.47491514 2:-0.90777795 
-4096 -0 -1075.639019135492 -4096 -0 -0 -4096 0 0 0 0 0 0 0 1:-0.47201382 2:-0.80557149 
-4096 -0 -4096 -4096 -4096 -389.5910116514948 -4096 0 0 0 2203.490793957425 1264.764923191986 0 0 1:-0.50399165 2:-0.83464917 
-4096 -0 -0 -0 -0 -0 -4096 0 0 0 0 0 0 0 1:-0.41063204 2:-0.81543531 
-0 -0 -4096 -1942.290720399255 -4096 -0 -4096 0 0 0 0 0 0 0 1:-0.52990258 2:-0.9210635 
-0 -0 -4096 -0 -4096 -4096 -4096 0 0 31.20337823726382 0 77.65696040667511 0 0 1:-0.58353117 2:-0.94439284 
-0 -0 -4096 -0 -4096 -0 -4096 0 0 0 0 0 0 0 1:-0.51512554 2:-0.92205235 
-4096 -0 -0 -0 -0 -0 -4096 0 0 0 0 0 0 0 1:-0.31997306 2:-0.74611052 
-4096 -0 -0 -4096 -0 -0 -0 0 0 0 0 0 0 0 1:-0.2561046 2:-0.66302233 
-4096 -0 -0 -4096 -0 -0 -0 0 0 0 0 0 0 0 1:-0.23712113 2:-0.7537339 
-4096 -0 -0 -4096 -0 -0 -0 0 0 0 0 0 0 0 1:-0.25334252 2:-0.65625915 
-4096 -0 -0 -4096 -0 -0 -0 0 0 0 0 0 0 0 1:-0.25399062 2:-0.75885262 
-4096 -0 -0 -4096 -0 -0 -0 0 0 0 0 0 0 0 1:-0.23029197 2:-0.78064237 
-0 -0 -0 -0 -0 -0 -0 0 0 540.2096335221744 4096 4096 0 4096 1:-0.19984966 2:-0.40944896 
-4096 -0 -0 -462.8245328812099 -0 -0 -0 0 0 0 4096 2806.413664842123 0 0 1:-0.2541898 2:-0.54321263 
-0 -0 -0 -0 -0 -0 -0 0 0 0 0 4096 0 4096 1:-0.2137692 2:-0.35815229 
-4096 -0 -0 -4096 -0 -0 -0 0 0 0 0 0 0 0 1:-0.28177318 2:-0.77935914 
-4096 -0 -0 -0 -0 -0 -4096 0 0 0 0 0 0 0 1:-0.35846382 2:-0.85549766 
-4096 -0 -0 -0 -0 -0 -4096 0 0 0 0 0 0 0 1:-0.39664633 2:-0.77256149 
-4096 -0 -0 -4096 -0 -0 -4096 0 0 0 0 0 0 555.6866254057724 1:-0.43385556 2:-0.65186717 
-4096 -0 -0 -2125.076153716808 -0 -0 -4096 0 0 0 370.3759097055828 0 0 0 1:-0.41283678 2:-0.70186901 
-4096 -0 -0 -0 -0 -0 -0 0 0 0 0 1255.038849756593 0 0 1:-0.26577405 2:-0.43008221 
-4096 -0 -0 -0 -0 -0 -4096 0 0 0 0 0 0 0 1:-0.32406367 2:-0.73754663 
-4096 -0 -0 -0 -0 -0 -0 0 0 0 0 0 0 0 1:-0.30719608 2:-0.54151108 
-4096 -0 -0 -4096 -0 -0 -0 0 0 0 0 0 0 0 1:-0.22017237 2:-0.78616252 
-0 -0 -0 -0 -0 -0 -4096 0 0 0 0 0 0 0 1:-0.39237842 2:-0.88843269 
-0 -0 -0 -4096 -0 -0 -0 0 0 0 0 0 0 0 1:-0.21972735 2:-0.89453663 
-4096 -0 -0 -4096 -0 -0 -0 0 0 0 0 0 0 0 1:-0.12528101 2:-0.78197694 
-0 -0 -0 -4096 -0 -0 -0 0 0 0 0 0 0 0 1:-0.31792633 2:-0.90420642 
-0 -0 -0 -4096 -0 -0 -0 0 0 0 0 0 0 0 1:-0.27416333 2:-0.86927229 
-0 -0 -0 -0 -0 -0 -4096 0 0 0 0 0 0 0 1:-0.39381066 2:-0.89423942 
-0 -0 -0 -4096 -0 -0 -0 0 0 0 0 0 0 -0 1:-0.3017225 2:-0.91549648 
-0 -0 -0 -0 -0 -0 -4096 0 0 0 0 0 0 0 1:-0.46353904 2:-0.92433159 
-4096 -0 -0 -4096 -0 -0 -0 322.9517003365517 0 4096 4096 4096 0 4096 1:-0.15662311 2:-0.64058317 
-4096 -0 -0 -4096 -0 -0 -0 0 0 0 0 0 0 0 1:-0.2676642 2:-0.76358868 
-4096 -0 -0 -4096 -0 -0 -0 0 0 0 0 0 0 0 1:-0.19725988 2:-0.7867173 
-2174.495130046134 -0 -0 -4096 -0 -0 -0 4096 0 4096 4096 4096 4096 4096 1:0.031344987 2:-0.48889625 
-4096 -0 -0 -0 -0 -0 -4096 0 0 0 0 0 0 0 1:-0.33060029 2:-0.76047009 
-4096 -0 -0 -4096 -0 -0 -0 0 0 0 4096 4096 0 3297.780466030384 1:-0.16139941 2:-0.67101763 
-0 -0 -0 -4096 -0 -0 -0 0 0 0 0 0 0 0 1:-0.24873212 2:-0.84506701 
-4096 -0 -0 -4096 -0 -0 -0 0 0 0 0 4096 0 0 1:-0.22894876 2:-0.66042757 
-0 -0 -0 -4096 -0 -0 -0 0 0 0 0 0 0 0 1:-0.19857138 2:-0.83959281 
-0 -0 -4096 -0 -4096 -0 -4096 0 0 0 0 0 0 0 1:-0.51016271 2:-0.92221511 
-0 -0 -3457.460301204236 -0 -2398.891883719648 -0 -4096 0 0 0 0 0 0 0 1:-0.4997482 2:-0.93688014 
-0 -0 -0 -0 -0 -0 -4096 0 0 0 0 0 0 0 1:-0.40673227 2:-0.89893134 
-0 -0 -4096 -4096 -4096 -851.0418056541104 -4096 0 0 0 0 0 0 0 1:-0.53660834 2:-0.92420269 
-0 -0 -0 -0 -0 -0 -4096 0 0 0 0 0 0 0 1:-0.46632382 2:-0.91982088 
-0 -0 -0 -0 -0 -0 -4096 0 0 0 0 0 0 0 1:-0.47293582 2:-0.91566584 
-0 -13.05358850408906 -4096 -0 -4096 -4096 -4096 0 68.05118025527108 0 0 0 0 0 1:-0.58765403 2:-0.94978463 
-0 -0 -4096 -0 -4096 -0 -4096 0 0 0 0 0 0 0 1:-0.51608066 2:-0.9341816 
-3894.982930467026 -0 -4096 -0 -4096 -4096 -4096 0 0 0 0 0 0 0 1:-0.5636439 2:-0.93247418 
-4096 -0 -0 -4096 -0 -0 -0 0 0 0 0 0 0 0 1:-0.26039667 2:-0.81637716 
-4096 -0 -0 -0 -0 -0 -4096 0 0 0 0 0 0 0 1:-0.3235258 2:-0.84762797 
-4096 -0 -0 -4096 -0 -0 -0 0 0 0 0 0 0 0 1:-0.28518767 2:-0.81427033 
-0 -0 -0 -4096 -0 -0 -0 0 0 0 0 0 0 0 1:-0.29017388 2:-0.86042056 
-0 -0 -0 -0 -0 -0 -4096 0 0 0 0 0 0 0 1:-0.38416598 2:-0.87485576 
-4096 -0 -0 -4096 -0 -0 -0 0 0 0 0 0 0 0 1:-0.21969546 2:-0.74271856 
-0 -0 -0 -0 -0 -0 -0 2430.116010565519 0 4096 4096 4096 0 4096 1:-0.14073314 2:-0.34817956 
-4096 -0 -0 -0 -0 -0 -4096 0 0 0 0 0 0 0 1:-0.38598944 2:-0.83282851 
-4096 -0 -0 -4096 -0 -0 -0 0 0 3627.734278857931 4096 4096 0 4096 1:-0.23531408 2:-0.52296469 
-0 -0 -0 -0 -0 -0 -4096 0 0 0 0 0 0 0 1:-0.3844007 2:-0.89350983 
-0 -0 -0 -0 -0 -0 -4096 0 0 0 0 0 0 0 1:-0.37856971 2:-0.86563181 
-4096 -0 -0 -0 -0 -0 -4096 0 0 0 0 0 0 0 1:-0.32364988 2:-0.8466 
-0 -0 -0 -0 -0 -0 -4096 0 0 0 0 0 0 0 1:-0.44188004 2:-0.91791023 
-0 -0 -0 -0 -0 -0 -4096 0 0 0 0 0 0 0 1:-0.41791544 2:-0.90586392 
-0 -0 -0 -0 -0 -0 -4096 0 0 0 0 0 0 0 1:-0.39604412 2:-0.91861995 
-0 -0 -0 -0 -0 -0 -4096 0 0 0 0 0 0 0 1:-0.37516032 2:-0.88075909 
-0 -0 -0 -0 -0 -0 -4096 0 0 0 0 0 0 0 1:-0.40702553 2:-0.88773531 
-0 -0 -0 -0 -0 -0 -4096 0 0 0 0 0 0 0 1:-0.36066061 2:-0.89258295 
-0 -0 -0 -4096 -0 -0 -0 0 0 0 0 0 0 0 1:-0.26855757 2:-0.89186074 
-0 -0 -0 -0 -0 -0 -3562.279404839615 0 0 0 0 0 0 0 1:-0.33087597 2:-0.86939848 
-4096 -0 -0 -0 -0 -0 -0 0 0 0 0 0 0 0 1:-0.31774147 2:-0.84240475 
-0 -0 -0 -4096 -0 -0 -0 0 0 0 0 0 0 0 1:-0.23667202 2:-0.85288295 
-4096 -0 -0 -0 -0 -0 -4096 0 0 0 0 0 0 0 1:-0.31571125 2:-0.74149726 
-4096 -0 -0 -0 -0 -0 -4096 0 0 0 0 0 0 0 1:-0.38280876 2:-0.85429867 
-0 -0 -0 -2267.047139376027 -0 -0 -2762.519374130789 0 0 0 0 0 0 0 1:-0.36138604 2:-0.91629122 
-4096 -0 -0 -0 -0 -0 -4096 0 0 0 0 0 0 0 1:-0.39280444 2:-0.80670549 
-4096 -0 -0 -0 -0 -0 -4096 0 0 0 0 0 0 0 1:-0.35749257 2:-0.77171229 
-0 -0 -0 -0 -0 -0 -4096 0 0 0 0 0 0 0 1:-0.3773715 2:-0.88186438 
-0 -0 -0 -0 -0 -0 -4096 0 0 0 0 0 0 0 1:-0.33201056 2:-0.86773999 
-4096 -0 -0 -0 -0 -0 -4096 0 0 0 0 0 0 0 1:-0.30797718 2:-0.75147773 
-4096 -0 -0 -4096 -0 -0 -0 0 0 0 0 0 0 0 1:-0.2974222 2:-0.73479183 
-4096 -0 -0 -0 -0 -0 -4096 0 0 0 0 0 0 0 1:-0.42457767 2:-0.85468247 
-4096 -0 -0 -0 -0 -0 -4096 0 0 0 0 0 0 0 1:-0.36809468 2:-0.83354786 
-4096 -0 -0 -0 -0 -0 -4096 0 0 0 0 0 0 0 1:-0.35743246 2:-0.77171338 
-4096 -0 -0 -0 -0 -0 -4096 0 0 0 0 0 0 0 1:-0.39030808 2:-0.80857349 
-4096 -0 -0 -0 -0 -0 -0 0 0 0 0 0 0 0 1:-0.30252786 2:-0.8298391 
-4096 -0 -0 -0 -0 -0 -4096 0 0 0 0 0 0 0 1:-0.33184245 2:-0.75328893 
-4096 -0 -0 -2925.241924099193 -0 -0 -0 0 0 0 0 0 0 0 1:-0.30011935 2:-0.81469914 
-0 -0 -0 -0 -0 -0 -4096 0 0 0 0 0 0 0 1:-0.37284322 2:-0.87981709 
-0 -0 -0 -4096 -0 -0 -0 0 0 0 0 0 0 0 1:-0.28157605 2:-0.8435354 
-0 -0 -0 -0 -0 -0 -4096 0 0 0 0 0 0 0 1:-0.40001023 2:-0.89963139 
-0 -0 -0 -0 -0 -0 -4096 0 0 0 0 0 0 0 1:-0.39727217 2:-0.89527983 
-0 -0 -0 -0 -0 -0 -4096 0 0 0 0 0 0 0 1:-0.42250872 2:-0.89100447 
-4096 -0 -0 -0 -0 -0 -4096 0 0 0 0 0 0 0 1:-0.42988557 2:-0.83495987 
-0 -0 -0 -0 -0 -0 -0 0 0 0 0 4096 0 15.872530831964 1:-0.25610816 2:-0.38403547 
-0 -0 -0 -0 -0 -0 -0 0 0 0 0 4096 0 4096 1:-0.24790106 2:-0.39166225 
-4096 -0 -0 -0 -0 -0 -0 0 0 0 3475.557497603162 4096 0 4096 1:-0.21990773 2:-0.44141449 
-0 -0 -0 -0 -0 -0 -0 0 0 4096 4096 4096 0 4096 1:-0.14985285 2:-0.27992739 
-0 -0 -0 -0 -0 -0 -0 54.99933269291332 4096 4096 4096 4096 144.6471692621379 4096 1:-0.1187123 2:-0.20233505 
-0 -0 -0 -0 -0 -0 -0 0 0 0 1876.612318403358 4096 0 4096 1:-0.16656195 2:-0.27463224 
-0 -0 -0 -0 -0 -0 -0 0 0 0 0 4096 0 4096 1:-0.24138817 2:-0.34921112 
-4096 -0 -0 -0 -0 -0 -0 0 0 0 0 0 0 0 1:-0.27194099 2:-0.4870121 
-4096 -0 -0 -0 -0 -0 -0 0 0 0 0 0 0 0 1:-0.28607334 2:-0.59799791 
-0 -0 -0 -0 -0 -0 -4096 0 0 0 0 0 0 0 1:-0.34289153 2:-0.86231039 
-4096 -0 -0 -0 -0 -0 -4096 0 0 0 0 0 0 0 1:-0.3718118 2:-0.86152922 
-0 -0 -0 -0 -0 -0 -4096 0 0 0 0 0 0 0 1:-0.3781191 2:-0.87598186 
-0 -0 -0 -0 -0 -0 -4096 0 0 0 0 0 0 0 1:-0.44525354 2:-0.89686794 
-0 -0 -0 -4096 -0 -0 -0 0 0 0 0 0 0 0 1:-0.32523884 2:-0.89024488 
-4096 -0 -0 -0 -0 -0 -4096 0 0 0 0 0 0 0 1:-0.44249836 2:-0.88129833 
-4096 -0 -0 -0 -0 -0 -4096 0 0 0 0 0 0 0 1:-0.45590005 2:-0.88865631 
-0 -0 -0 -0 -0 -0 -4096 0 0 0 0 0 0 0 1:-0.37159402 2:-0.89950873 
-4096 -0 -0 -4096 -0 -0 -4096 0 0 0 0 0 0 0 1:-0.47255096 2:-0.84506919 
-0 -0 -0 -4096 -0 -0 -0 0 0 0 0 0 0 0 1:-0.27555975 2:-0.85533796 
-723.3438294377378 -0 -0 -4096 -0 -0 -472.167754597618 2109.29599353289 0 0 0 0.3969973333563588 493.9373870135015 771.1850046418106 1:-0.034408328 2:-0.77581998 
-0 -0 -0 -4096 -0 -0 -0 0 0 0 0 0 0 0 1:-0.24593549 2:-0.87366046 
-4096 -0 -0 -4096 -0 -0 -0 0 0 0 0 0 0 0 1:-0.22827856 2:-0.79736475 
-339.0585734659102 -0 -0 -4096 -0 -0 -0 0 0 0 0 0 0 0 1:-0.10590151 2:-0.79589989 
-0 -0 -0 -4096 -0 -0 -0 0 0 0 0 0 0 0 1:-0.22182357 2:-0.89940745 
-0 -0 -0 -4096 -0 -0 -0 0 0 0 0 0 0 0 1:-0.27110597 2:-0.89640133 
-0 -0 -0 -4096 -0 -0 -0 0 0 0 0 0 0 0 1:-0.21764962 2:-0.89372423 
-0 -0 -0 -4096 -0 -0 -0 0 0 0 0 0 0 0 1:-0.25935054 2:-0.87867659 
-0 -0 -0 -0 -0 -0 -4096 0 0 0 0 0 0 0 1:-0.33503808 2:-0.87194665 
-4096 -0 -0 -0 -0 -0 -0 0 0 0 0 0 0 0 1:-0.3023539 2:-0.81407426 
-0 -0 -0 -4096 -0 -0 -0 0 0 0 0 0 0 0 1:-0.28870318 2:-0.85837769 
-4096 -0 -0 -0 -0 -0 -4096 0 0 0 0 0 0 0 1:-0.370533 2:-0.86068581 
-4096 -0 -0 -0 -0 -0 -4096 0 0 0 0 0 0 0 1:-0.417859 2:-0.84044859 
-4096 -0 -0 -0 -0 -0 -4096 0 0 0 0 0 0 0 1:-0.4179577 2:-0.83084438 
-4096 -0 -0 -0 -0 -0 -4096 0 0 0 0 0 0 0 1:-0.381376 2:-0.78953888 
-4096 -0 -0 -0 -0 -0 -4096 0 0 0 0 0 0 0 1:-0.38769596 2:-0.78704159 
-4096 -0 -0 -0 -0 -0 -4096 0 0 0 0 0 0 0 1:-0.45364256 2:-0.88975458 
-4096 -0 -0 -4096 -0 -0 -0 0 0 0 0 0 0 0 1:-0.29928839 2:-0.80706982 
-4096 -0 -0 -0 -0 -0 -4096 0 0 0 0 0 0 0 1:-0.40896841 2:-0.82189973 
-0 -0 -0 -0 -0 -0 -4096 0 0 0 0 0 0 0 1:-0.39740179 2:-0.87645902 
-4096 -0 -0 -0 -0 -0 -4096 0 0 0 0 0 0 0 1:-0.42497519 2:-0.85812405 
-0 -0 -0 -0 -0 -0 -4096 0 0 0 0 0 0 0 1:-0.33205901 2:-0.85769156 
-4096 -0 -0 -0 -0 -0 -4096 0 0 0 0 0 0 0 1:-0.4252548 2:-0.86848945 
-0 -0 -0 -0 -0 -0 -4096 0 0 0 0 0 0 0 1:-0.41389663 2:-0.87977545 
-0 -0 -0 -0 -0 -0 -4096 0 0 0 0 0 0 0 1:-0.34884825 2:-0.89007001 
-4096 -0 -0 -0 -0 -0 -4096 0 0 0 0 0 0 0 1:-0.48287367 2:-0.89058553 
-0 -0 -0 -0 -0 -6.075493380181344 -0 0 292.7374861551934 0 0 4096 0 4096 1:-0.25492938 2:-0.12902894 
-0 -0 -0 -3315.418192485692 -0 -0 -0 4096 4096 4096 4096 4096 4096 4096 1:-0.050849535 2:-0.26033137 
-4096 -0 -0 -0 -0 -0 -4096 0 0 0 0 0 0 0 1:-0.36116603 2:-0.57555991 
-0 -0 -0 -0 -0 -0 -0 0 0 0 0 4096 0 4096 1:-0.20394169 2:-0.19381937 
-0 -0 -0 -0 -0 -0 -0 0 0 0 0 4096 0 4096 1:-0.19093404 2:-0.20332266 
-0 -0 -0 -0 -0 -0 -0 0 0 0 0 4096 0 4096 1:-0.23508729 2:-0.35445191 
-0 -0 -0 -0 -0 -0 -0 0 0 0 0 4096 0 4096 1:-0.26026424 2:-0.29375733 
-0 -0 -0 -0 -0 -0 -0 0 0 0 0 4096 0 4096 1:-0.19331095 2:-0.25737573 
-4096 -0 -0 -0 -0 -0 -0 0 0 0 0 0 0 0 1:-0.34512498 2:-0.4131183 
-0 -0.3850973290848693 -0.07065258603342976 -0 -0.07049210484162036 -0.09814837347227244 -0 -0 1550.647533492799 0 260.1558533308511 1488.378833510025 4077.691940517445 0 1:0.383719 2:1 
-0 -0 -0 -0 -0 -0 -0 -0 4096 4096 2588.340980278603 4096 4096 4096 1:0.22496726 2:0.058555694 
-0 -0 -0 -0 -0 -0 -0 -0 4096 4096 4096 0 4096 4096 1:0.25340342 2:0.13498816 
-0 -0 -0 -0 -0 -0 -0 -0 4096 4096 0 0 4096 0 1:0.57253079 2:0.37814633 
-0 -0 -0 -0 -0 -0 -0 -0 4096 4096 0 3370.463495588922 4096 0 1:0.28101764 2:-0.057271339 
-0 -0 -0 -0 -0 -0 -0 -0 4096 4096 4096 0 4096 0 1:0.50723255 2:0.1932847 
-0 -0 -0 -0 -0 -0 -0 -0 4096 4096 4096 4096 0 4096 1:0.10505541 2:-0.33317254 
-0 -0 -0 -0 -0 -0 -0 -0 4096 4096 4096 0 4096 0 1:0.45183782 2:0.069362642 
-0 -0 -0 -0 -0 -0 -0 -0 4096 4096 4096 4096 4096 4096 1:0.14349939 2:-0.050252285 
-0 -0 -0 -0 -0 -0 -0 -0 4096 1704.171577949589 0 3417.146028745409 4096 0 1:0.64760044 2:0.34457691 
-0 -0 -0 -0 -0 -0 -0 -0 4096 4096 4096 4096 4096 4096 1:0.41502333 2:-0.28314063 
-0 -0 -0 -0 -0 -0 -0 -0 4096 4096 4096 0 4096 4096 1:0.47062698 2:0.021469001 
-0 -0 -0 -0 -0 -0 -0 -0 4096 4096 4096 4096 4096 4096 1:0.1476441 2:0.18312566 
-0 -0 -0 -0 -0 -0 -0 -0 4096 4096 4096 0 4096 4096 1:0.2528999 2:0.33633479 
-0 -0 -0 -0 -0 -0 -0 -0 4096 4096 0 4096 4096 4096 1:0.25052857 2:0.017325148 
-0 -0 -0 -0 -0 -0 -0 -0 4096 4096 0 4096 4096 4096 1:0.17104206 2:-0.06442217 
-0 -0 -0 -3031.609160683093 -0 -0 -0 -0 0 4096 4096 4096 744.111502150744 4096 1:0.0032132399 2:-0.42012894 
-0 -0 -0 -0 -0 -0 -0 -0 0 1521.204128528041 4096 4096 0 4096 1:0.04997997 2:-0.39747284 
-0 -0 -0 -0 -0 -0 -0 -0 4096 4096 0 4096 4096 0 1:0.26848272 2:-0.03673169 
-0 -0 -0 -0 -0 -0 -0 -0 4096 4096 4096 4096 4096 4096 1:0.16392163 2:0.014444577 
-0 -0 -0 -0 -0 -0 -0 -0 4096 4096 453.1614244331023 4096 0 4096 1:0.11042123 2:-0.29924597 
-0 -0 -0 -0 -0 -0 -0 -0 4096 4096 4096 4096 0 4096 1:0.07117727 2:-0.27749864 
-0 -0 -0 -0 -0 -0 -0 -763.0184567297555 4096 4096 4096 4096 4096 4096 1:-0.026224275 2:-0.20823832 
-0 -0 -0 -0 -0 -0 -0 -0 4096 4096 4096 4096 4096 4096 1:0.11174453 2:0.094459737 
-0 -0 -0 -0 -0 -0 -0 -0 4096 4096 0 0 4096 0 1:0.18360511 2:-0.32077842 
-0 -0 -0 -0 -0 -0 -0 -0 4096 4096 4096 0 4096 0 1:0.27400992 2:-0.41307776 
-0 -0 -0 -0 -0 -0 -0 -0 4096 4096 0 4096 4096 0 1:0.26332392 2:-0.21609484 
-0 -0 -0 -0 -0 -0 -0 -0 4096 4096 0 4096 0 4096 1:0.12078471 2:-0.2090392 
-0 -0 -0 -0 -0 -0 -0 -0 0 4096 4096 4096 0 4096 1:0.025138193 2:-0.35549102 
-0 -0 -0 -64.82846511278783 -0 -0 -0 -0 0 0 4096 0 0 4096 1:0.10160862 2:-0.53167371 
-0 -0 -0 -0 -0 -0 -0 -0 4096 4096 4096 0 4096 1027.817090701058 1:0.49324566 2:0.050309971 
-0 -0 -0 -0 -0 -0 -0 -0 4096 4096 4096 0 4096 4096 1:0.41785919 2:-0.10804577 
-0 -0 -0 -0 -0 -0 -0 -0 4096 4096 4096 474.6982061116277 4096 1465.148675598358 1:0.37664825 2:-0.14057533 
-0 -0 -0 -0 -0 -0 -0 -0 4096 4096 4096 0 4096 0 1:0.32011155 2:0.2151645 
-0 -0 -0 -0 -0 -0 -0 -0 4096 4096 0 0 4096 0 1:0.25152181 2:-0.37529534 
-0 -0 -0 -0 -0 -0 -0 -0 4096 0 1534.669543163138 1827.020944075518 4096 0 1:0.68391959 2:0.30871457 
-0 -0 -0 -0 -0 -0 -0 -0 4096 4096 4096 4096 4096 4096 1:0.208964 2:0.10568687 
-0 -0 -0 -0 -0 -0 -0 -0 4096 4096 4059.062268637233 4096 4096 0 1:0.29919327 2:-0.18204286 
-0 -0 -0 -0 -0 -0 -0 -0 4096 4096 878.9808074331834 0 4096 0 1:0.40936041 2:0.34281804 
-0 -0 -0 -0 -0 -0 -0 -0 4096 4096 0 4096 3356.58646300422 1091.503215606601 1:0.18530938 2:-0.16558307 
-0 -0 -0 -0 -0 -0 -0 -58.34458039811896 4096 3695.195825030663 4096 2554.173817377644 4096 4096 1:0.61272461 2:-0.37907339 
-0 -0 -0 -0 -0 -0 -0 -0 0 0 2930.90883571384 160.8327234306254 3766.334402519301 4096 1:0.78463919 2:-0.15292929 
-0 -0 -0 -0 -0 -0 -0 -0 4096 4096 0 0 3585.192768785365 0 1:0.16942628 2:-0.38245306 
-0 -0 -0 -0 -0 -0 -0 -0 4096 4096 4096 0 4096 0 1:0.37606452 2:0.069618035 
-0 -0 -0 -0 -0 -0 -0 -0 4096 4096 0 4096 4096 0 1:0.25936209 2:-0.04692009 
-0 -0 -0 -0 -0 -0 -0 -0 0 0 4096 0 0 0 1:0.15386881 2:-0.43352065 
-0 -0 -0 -0 -0 -0 -0 -0 4096 4096 0 0 0 0 1:0.13645783 2:-0.38391742 
-189.1486444563313 -2.27389830833111 -8.22036597993583 -4096 -8.010064862182986 -7.206675366901343 -72.79313426878071 -4096 0 2656.439296589732 4096 0 0 4096 1:-0.034672982 2:-0.69092366 
-0 -0 -0 -0 -0 -0 -0 -0 4096 4096 0 0 4096 0 1:0.24502732 2:-0.29306585 
-0 -0 -0 -0 -0 -0 -0 -0 0 0 4096 1954.078811574681 0 4096 1:0.076316187 2:-0.38835832 
-0 -0 -0 -0 -0 -0 -0 -0 4096 0 0 4096 4096 0 1:0.65410148 2:0.39650617 
-200.2700794580412 -0 -0 -2729.136612785065 -0 -0 -0 -4096 0 4096 4096 4096 4096 4096 1:-0.055161737 2:-0.3865747 
-0 -0 -0 -0 -0 -0 -0 -0 0 4096 4096 4096 0 4096 1:0.050430381 2:-0.34176084 
-0 -0 -0 -0 -0 -0 -0 -4096 1726.958625142853 4096 4096 4096 4096 4096 1:-0.04313355 2:-0.28424145 
-0 -0 -0 -0 -0 -0 -0 -0 4096 4096 0 0 4096 4096 1:0.25506016 2:0.028018866 
-0 -0 -0 -0 -0 -0 -0 -0 4096 4096 4096 4096 0 4096 1:0.10964877 2:-0.20896548 
-0 -0 -0 -0 -0 -0 -0 -0 2367.554081349071 4096 3281.141688393055 0 0 0 1:0.15646058 2:-0.42142276 
-0 -0 -0 -0 -0 -0 -0 -0 4096 4096 0 4096 0 0 1:0.14348425 2:-0.28723796 
-0 -0 -0 -0 -0 -0 -0 -0 4096 4096 4096 0 4096 3583.434189011775 1:0.22671817 2:-0.48161039 
-0 -0 -0 -0 -0 -0 -0 -0 4096 4096 4096 0 4096 0 1:0.29184676 2:-0.25387579 
-0 -0 -0 -0 -0 -0 -0 -0 -4096 4096 4096 4096 4096 4096 1:0.27322847 2:0.092167335 
-0 -0 -0 -0 -0 -0 -0 -0 -1296.072958918759 4096 4096 0 4096 0 1:0.3882588 2:0.077296286 
-0 -0.128409549955049 -0 -0 -0 -0 -0 -0 -2009.062896662059 0 0 1580.384438677407 2239.691030431082 0 1:0.52709715 2:0.77347824 
-0 -0 -0 -0 -0 -0 -0 -0 -4096 4096 0 4096 0 0 1:0.2499902 2:-0.19640853 
-0 -0 -0 -0 -0 -0 -0 -0 -4096 4096 0 0 2569.104344890443 0 1:0.31511933 2:-0.14935242 
-0 -0 -0 -0 -0 -0 -0 -0 -4096 4096 0 4096 0 0 1:0.23823257 2:-0.18742202 
-0 -0 -0 -0 -0 -0 -0 -0 -4096 4096 4096 4096 4096 4096 1:0.12308404 2:0.056417022 
-0 -0 -0 -0 -0 -0 -0 -0 -4096 4096 4096 4096 4096 4096 1:0.16812919 2:-0.078241952 
-0 -0 -0 -0 -0 -0 -0 -0 -4096 4096 4096 4096 2758.034857180011 4096 1:0.17399637 2:-0.097550372 
-0 -0 -0 -0 -0 -0 -0 -0 -4096 4096 0 4096 0 0 1:0.21772962 2:-0.27972837 
-0 -0 -0 -0 -0 -0 -0 -0 -4096 4096 0 4096 0 4096 1:0.24299062 2:-0.078581985 
-0 -0 -0 -0 -0 -0 -0 -0 -4096 4096 2875.202842111619 4096 0 4096 1:0.26786026 2:-0.42029509 
-130.7624607374731 -2.12613547347429 -4.663004008345092 -106.7131612748673 -4.534889875801641 -4.226242773197749 -20.47292744327825 -4096 -4096 4096 4096 4096 4096 4096 1:-0.1657304 2:-0.28608327 
-0 -0 -0 -0 -0 -0 -0 -0 -4096 4096 4096 4096 4096 4096 1:0.075051685 2:-0.20909845 
-0 -0 -0 -0 -0 -0 -0 -0 -4096 4096 0 4096 4096 4096 1:0.28055061 2:-0.0155606 
-0 -0 -0 -0 -0 -0 -0 -0 -4096 4096 0 0 4096 0 1:0.45403032 2:0.29102453 
-0 -0 -0 -0 -0 -0 -0 -0 -3535.744083817801 4096 0 0 4096 0 1:0.34283185 2:0.21072671 
-0 -0 -0 -0 -0 -0 -0 -0 -4096 4096 4096 4096 4096 4096 1:0.2475013 2:0.01666168 
-0 -0 -0 -0 -0 -0 -0 -0 -4096 4096 3323.416503581796 0 4096 0 1:0.33605753 2:-0.4111988 
-0 -0 -0 -0 -0 -0 -0 -0 -4096 1221.407627734299 4096 0 4096 4096 1:0.46632338 2:-0.0031967712 
-0 -0 -0 -0 -0 -0 -0 -0 -4096 4096 0 0 0 0 1:0.32105162 2:-0.25132055 
-0 -0 -0 -0 -0 -0 -0 -0 -4096 0 0 0 4096 0 1:0.55509049 2:0.48186061 
-0 -0 -0 -0 -0 -0 -0 -0 -2464.628085726703 0 0 1221.493771492219 4096 0 1:0.56073316 2:0.51063314 
-0 -0 -0 -0 -0 -0 -0 -0 -4096 4096 4096 0 4096 0 1:0.4240239 2:0.099252623 
-0 -0 -0 -64.1500519710543 -0 -0 -0 -0 -4096 4096 4096 0 4096 4096 1:0.29063652 2:-0.46008143 
-0 -0 -0 -0 -0 -0 -0 -0 -0 4096 0 0 4096 1154.795302080049 1:0.32600012 2:-0.0074917549 
-0 -0 -0 -0 -0 -0 -0 -0 -0 0 2717.16981681441 0 4096 0 1:0.36628601 2:-0.30387375 
-0 -0 -0 -0 -0 -0 -0 -3750.763688433587 -4096 4096 4096 4096 4096 4096 1:-0.044556648 2:-0.15156859 
-0 -0 -0 -0 -0 -0 -0 -0 -4096 4096 4096 15.94207645301965 4096 4096 1:0.29304942 2:0.13033838 
-0 -0 -0 -0 -0 -0 -0 -0 -4096 4096 2566.235134519659 4096 4096 4096 1:0.28485026 2:0.04691846 
-0 -0 -0 -0 -0 -0 -0 -0 -1549.738846712878 0 0 0 0 0 1:0.32496952 2:-0.23044581 
-0 -0 -0 -0 -0 -0 -0 -0 -4096 4096 2922.520038613241 4096 0 4096 1:0.16974878 2:-0.27062252 
-0 -0 -0 -0 -0 -0 -0 -0 -4096 4096 0 4096 0 1200.097664988853 1:0.19484898 2:-0.22355162 
-0 -0 -0 -0 -0 -0 -0 -0 -4096 4096 4096 0 4096 2484.756434562935 1:0.30038932 2:0.18949963 
-0 -0 -0 -0 -0 -0 -0 -0 -3765.949766808984 4096 0 0 4096 0 1:0.3656917 2:0.22747819 
-0 -0 -0 -0 -0 -0 -0 -0 -0 3384.971246947104 0 0 4096 0 1:0.36604546 2:0.44391614 
-0 -0 -0 -0 -0 -0 -0 -0 -4096 4096 4096 4096 4096 4096 1:0.12727399 2:-0.12298436 
-0 -0 -0 -0 -0 -0 -0 -0 -4096 4096 0 4096 0 0 1:0.22971285 2:-0.21130145 
-0 -0 -0 -0 -0 -0 -0 -0 -0 4096 993.5743202767441 0 4096 0 1:0.31172946 2:0.27673148 
-0 -0 -0 -0 -0 -0 -0 -0 -4096 4096 4096 4096 4096 4096 1:0.17924991 2:-0.058583267 
-0 -0 -0 -0 -0 -0 -0 -0 -4096 4096 4096 0 4096 0 1:0.61824981 2:0.18593524 
-0 -0 -0 -0 -0 -0 -0 -0 -0 4096 813.3819950410755 0 4096 0 1:0.360991 2:-0.073460931 
-0 -0 -0 -0 -0 -0 -0 -0 -2076.683515293098 326.0965672857631 2755.974413113961 1130.381212767114 4096 1644.381093269743 1:0.12578913 2:0.61977892 
-0 -0 -0 -0 -0 -0 -0 -0 -0 0 0 4096 4096 0 1:0.56528436 2:0.64089053 
-0 -0 -0 -0 -0 -0 -0 -706.024977976878 -4096 4096 4096 4096 4096 4096 1:0.087668051 2:-0.3305109 
-0 -0 -0 -0 -0 -0 -0 -0 -4096 4096 4096 1578.077524093962 0 4096 1:0.27303512 2:-0.43049476 
-0 -0 -0 -0 -0 -0 -0 -0 -0 3517.118530445798 0 0 4096 0 1:0.35018548 2:-0.31128564 
-0 -0 -0 -0 -0 -0 -0 -0 -4096 4096 4096 0 4096 4096 1:0.27855416 2:-0.44005761 
-0 -0 -0 -0 -0 -0 -0 -0 -4096 4096 4096 0 4096 0 1:0.39800494 2:0.070459924 
-0 -0 -0 -0 -0 -0 -0 -0 -4096 4096 0 905.6600867598826 4096 0 1:0.31019355 2:-0.13471726 
-0 -0 -0 -0 -0 -0 -0 -0 -1235.280086044406 0 4096 1637.515926462882 4096 4096 1:0.51511597 2:-0.24631965 
-0 -0 -0 -0 -0 -0 -0 -0 -4096 4096 4096 4096 4096 4096 1:0.10068975 2:-0.020595204 
-0 -0 -0 -0 -0 -0 -0 -0 -4096 4096 4096 4096 4096 4096 1:0.19688435 2:0.0074477616 
-0 -0 -0 -0 -0 -0 -0 -0 -4096 4096 4096 4096 4096 4096 1:0.11025 2:-0.36548593 
-0 -0 -0 -0 -0 -0 -0 -0 -4096 4096 4096 0 4096 0 1:0.49770649 2:0.080549754 
-0 -0 -0 -0 -0 -0 -0 -0 -4096 4096 0 0 4096 319.6349037414722 1:0.31020867 2:-0.41527748 
-0 -0 -0 -0 -0 -0 -0 -0 -4096 4096 0 4096 0 0 1:0.25289275 2:-0.25913087 
-0 -0 -0 -0 -0 -0 -0 -0 -4096 2803.564118800163 0 0 4096 0 1:0.52129906 2:0.27825172 
-0 -0 -0 -0 -0 -0 -0 -0 -4096 1407.023514817866 1841.059926588243 3973.208643106349 4096 2451.246738890022 1:0.81574552 2:0.19477305 
-0 -0 -0 -0 -0 -0 -0 -0 -0 953.2155471922629 0 0 4096 0 1:0.35762327 2:-0.10132023 
-0 -0 -0 -0 -0 -0 -0 -0 -4096 -4096 4096 4096 4096 4096 1:0.20909913 2:0.055114933 
-0 -0 -0 -0 -0 -0 -0 -0 -4096 -4096 0 0 4096 0 1:0.30098523 2:0.073648787 
-0 -0 -0 -0 -0 -0 -0 -0 -4096 -4096 4096 4096 0 4096 1:0.19913457 2:-0.10662021 
-0 -0 -0 -0 -0 -0 -0 -0 -4096 -4096 4096 4096 4096 4096 1:0.13388774 2:0.22556648 
-0 -0 -0 -0 -0 -0 -0 -0 -4096 -4096 0 0 0 0 1:0.30844723 2:-0.06741514 
-4096 -3.419858979771174 -13.38609083626686 -4096 -12.67650581153301 -11.14105602596736 -2184.508478660742 -4096 -0 -0 4096 4096 0 4096 1:-0.26685557 2:-0.5782537 
-0 -0 -0 -0 -0 -0 -0 -0 -4096 -4096 61.26735280177042 4096 1405.536272604425 0 1:0.23542975 2:-0.20323393 
-0 -0 -0 -0 -0 -0 -0 -0 -4096 -4096 0 4096 4096 0 1:0.29906853 2:-0.19520581 
-0 -0 -0 -0 -0 -0 -0 -0 -121.9595565575456 -4096 4096 0 4096 1980.771683670752 1:0.43904139 2:0.02253017 
-0 -0 -0 -0 -0 -0 -0 -0 -4096 -4096 641.2409798024913 0 4092.927644726279 0 1:0.33220041 2:0.023351512 
-0 -0 -0 -0 -0 -0 -0 -0 -4096 -4096 4096 4096 4096 0 1:0.61793652 2:0.37076999 
-0 -0 -0 -0 -0 -0 -0 -0 -4096 -4096 0 4096 4096 0 1:0.28157616 2:-0.19662563 
-0 -0 -0 -0 -0 -0 -0 -0 -4096 -4096 4096 4096 0 4096 1:0.16143089 2:-0.20919826 
-0 -0 -0 -0 -0 -0 -0 -0 -4096 -4096 4096 4096 2465.26673785098 4096 1:0.10229787 2:-0.11645926 
-0 -0 -0 -0 -0 -0 -0 -4096 -0 -0 4096 4096 0 4096 1:-0.12905335 2:-0.33207079 
-0 -0 -0 -0 -0 -0 -0 -0 -1408.272629331034 -0 4096 4096 4096 4096 1:-0.0029559856 2:0.16398755 
-0 -0 -0 -0 -0 -0 -0 -1483.330034161814 -4096 -0 4096 4096 0 4096 1:-0.073262891 2:-0.34361835 
-0 -0 -0 -0 -0 -0 -0 -4096 -1330.758919490494 -0 4096 4096 2294.193142153219 4096 1:-0.090571404 2:-0.19999602 
-0 -0 -0 -0 -0 -0 -0 -0 -4096 -4096 4096 4096 4096 4096 1:0.18290966 2:0.049680365 
-0 -0 -0 -0 -0 -0 -0 -0 -4096 -4096 0 4096 4096 0 1:0.2718059 2:-0.19538536 
-0 -0 -0 -0 -0 -0 -0 -0 -4096 -4096 4096 0 4096 0 1:0.32916759 2:-0.2307364 
-0 -0 -0 -0 -0 -0 -0 -0 -0 -4096 0 0 4096 0 1:0.43807055 2:0.22155976 
-0 -0 -0 -0 -0 -0 -0 -0 -4096 -4096 0 0 4096 0 1:0.36260336 2:0.32741507 
-0 -0 -0 -0 -0 -0 -0 -0 -4096 -4096 4096 4096 4096 4096 1:0.22329556 2:0.032625277 
-0 -0 -0 -0 -0 -0 -0 -0 -4096 -4096 4096 1516.540104414715 0 4096 1:0.12555243 2:-0.4618373 
-0 -0 -0 -0 -0 -0 -0 -0 -4096 -4096 4096 0 4096 2758.082298003 1:0.52257476 2:0.19231396 
-0 -0 -0 -0 -0 -0 -0 -0 -4096 -4096 4096 0 4096 4096 1:0.28386333 2:0.16941585 
-0 -0 -0 -0 -0 -0 -0 -2029.658752694134 -0 -1814.763659195885 4096 4096 4096 4096 1:-0.06005329 2:-0.0530214 
-0 -0 -0 -0 -0 -0 -0 -0 -4096 -4096 4096 4096 4096 4096 1:-0.0063549262 2:-0.27344436 
-0 -0 -0 -0 -0 -0 -0 -0 -4096 -4096 3680.470190339001 0 4096 4096 1:0.28394007 2:-0.41527552 
-0 -0 -0 -0 -0 -0 -0 -0 -4096 -4096 4096 2290.354201661905 4096 4096 1:0.42368692 2:-0.23248293 
-0 -0 -0 -0 -0 -0 -0 -0 -4096 -4096 4096 0 4096 0 1:0.50871278 2:0.18662978 
-0 -0 -0 -0 -0 -0 -0 -0 -4096 -4096 4096 3708.369914701422 4096 4096 1:0.23899321 2:0.093931731 
-0 -0 -0 -0 -0 -0 -0 -0 -4096 -4096 0 0 4096 4096 1:0.29409689 2:-0.41012422 
-0 -0 -0 -0 -0 -0 -0 -0 -0 -4096 0 0 4096 0 1:0.33773144 2:0.074076876 
-0 -0 -0 -0 -0 -0 -0 -0 -4096 -4096 4096 4096 4096 4096 1:0.44544408 2:-0.17539605 
-0 -0 -0 -0 -0 -0 -0 -0 -4096 -4096 4096 4096 4096 4096 1:0.050221972 2:-0.11011653 
-0 -0 -0 -3023.683572911328 -0 -0 -0 -0 -4096 -0 4096 4096 0 4096 1:0.062764774 2:-0.44288357 
-0 -0 -0 -0 -0 -0 -0 -0 -4096 -4096 4096 4096 4096 4096 1:0.13161102 2:-0.04455835 
-0 -0 -0 -0 -0 -0 -0 -0 -4045.345255197165 -4096 0 0 4096 0 1:0.46286202 2:0.25555815 
-0 -0 -0 -0 -0 -0 -0 -0 -4096 -4096 4096 4096 0 4096 1:0.20839224 2:-0.030924381 
-0 -0 -0 -0 -0 -0 -0 -0 -4096 -4096 4096 0 4096 1696.958332128189 1:0.41652693 2:-0.44792987 
-0 -0 -0 -4096 -0 -0 -0 -4096 -4096 -0 4096 4096 2414.684636617281 4096 1:-0.071570326 2:-0.44934945 
-0 -0 -0 -0 -0 -0 -0 -0 -4096 -4096 4096 4096 4096 4096 1:-0.028835814 2:-0.2163748 
-4096 -0 -0 -4096 -0 -0 -0 -4096 -0 -0 4096 4096 0 4096 1:-0.15007163 2:-0.432146 
-0 -0 -0 -0 -0 -0 -0 -0 -4096 -4096 0 4096 4096 0 1:0.26566577 2:-0.17288798 
-0 -0 -0 -0 -0 -0 -0 -0 -4096 -4096 3416.348140310783 3364.159668463638 4096 0 1:0.30696575 2:-0.22764497 
-0 -0 -0 -0 -0 -0 -0 -0 -4096 -4096 4096 4096 0 4096 1:0.18966725 2:-0.14955171 
-0 -0 -0 -0 -0 -0 -0 -0 -4096 -4096 4096 0 4096 4096 1:0.45310921 2:-0.053835337 
-0 -0 -0 -0 -0 -0 -0 -0 -4096 -4096 0 0 4096 0 1:0.30940599 2:-0.29079621 
-0 -0 -0 -0 -0 -0 -0 -0 -4096 -4096 0 0 4096 2059.439871130838 1:0.35688335 2:0.31259335 
-0 -0 -0 -0 -0 -0 -0 -0 -4096 -4096 0 0 4096 302.4846120952427 1:0.25434115 2:-0.34295968 
-0 -0 -0 -0 -0 -0 -0 -0 -4096 -230.3405991154831 4096 4096 0 4096 1:0.065217581 2:-0.4267466 
-0 -0 -0 -0 -0 -0 -0 -0 -2670.674467521789 -4096 0 0 4096 0 1:0.30817434 2:0.080688087 
-0 -0 -0 -0 -0 -0 -0 -0 -4096 -4096 0 0 0 0 1:0.28805589 2:0.04976707 
-0 -0 -0 -0 -0 -0 -0 -0 -4096 -4096 4096 4096 0 4096 1:0.08738346 2:-0.25313477 
-0 -0 -0 -0 -0 -0 -0 -0 -4096 -4096 4096 4096 0 4096 1:0.1595541 2:-0.30350323 
-0 -0 -0 -707.5212486612019 -0 -0 -0 -686.1585037614212 -4096 -3376.292894911906 4096 0 0 4096 1:0.1574748 2:-0.51942164 
-0 -0 -0 -0 -0 -0 -0 -0 -4096 -4096 4096 4096 1362.598816852512 4096 1:0.056555586 2:-0.41620189 
-1583.227758987438 -0 -0 -4096 -0 -0 -0 -4096 -4096 -0 4096 4096 1530.25047465374 4096 1:-0.081611033 2:-0.50250364 
-0 -0 -0 -0 -0 -0 -0 -0 -4096 -4096 -4096 4096 4096 4096 1:0.045108994 2:-0.19989118 
-0 -0 -0 -0 -0 -0 -0 -4096 -0 -0 -0 4096 0 4096 1:-0.097216862 2:-0.21292978 
-0 -0 -0 -0 -0 -0 -0 -0 -4096 -4096 -4096 4096 4096 4096 1:0.019812208 2:-0.19448187 
-0 -0 -0 -0 -0 -0 -0 -0 -4096 -4096 -4096 0 4096 1567.962527484783 1:0.39350391 2:0.21722042 
-4096 -0 -0 -4096 -0 -0 -4096 -4096 -0 -0 -0 4096 0 4096 1:-0.33226875 2:-0.63709284 
-692.2705815493232 -0 -0 -644.1973560463013 -0 -0 -0 -4096 -0 -0 -0 4096 0 4096 1:-0.14979616 2:-0.42548806 
-0 -0 -0 -0 -0 -0 -0 -0 -4096 -4096 -4096 4096 4096 2430.063580580231 1:0.33826521 2:-0.054621671 
-0 -0 -0 -0 -0 -0 -0 -0 -4096 -0 -0 0 4096 2228.647546581215 1:0.57023986 2:-0.35060413 
-0 -0 -0 -0 -0 -0 -0 -0 -4096 -4096 -4096 4096 4096 2217.161697530266 1:0.44687316 2:-0.07668645 
-0 -0 -0 -0 -0 -0 -0 -0 -4096 -4096 -4096 4096 4096 4096 1:0.45904388 2:0.023538941 
-0 -0 -0 -0 -0 -0 -0 -0 -4096 -4096 -4096 4096 3751.769110369843 4096 1:0.038924113 2:-0.34228279 
-0 -0 -0 -0 -0 -0 -0 -0 -4096 -4096 -4096 4096 4096 4096 1:0.0029550455 2:-0.11756524 
-0 -0 -0 -0 -0 -0 -0 -0 -4096 -0 -4096 4096 0 4096 1:-0.022110043 2:-0.3231799 
-0 -0 -0 -0 -0 -0 -0 -0 -4096 -4096 -4096 4096 4096 4096 1:0.443349 2:0.069011349 
-0 -0 -0 -0 -0 -0 -0 -0 -4096 -4096 -4096 1666.992206604723 4096 4096 1:0.52098581 2:-0.0033529428 
-0 -0 -0 -0 -0 -0 -0 -4096 -0 -0 -0 4096 0 4096 1:-0.087138529 2:-0.24878241 
-0 -0 -0 -0 -0 -0 -0 -0 -0 -0 -4096 4096 0 4096 1:-0.065935719 2:-0.30969284 
-0 -0 -0 -0 -0 -0 -0 -0 -4096 -4096 -4096 4096 4096 4096 1:0.11879471 2:0.090000512 
-0 -0 -0 -0 -0 -0 -0 -0 -4096 -4096 -4096 4096 4096 4096 1:0.1290231 2:-0.16494796 
-4096 -5.747434721705031 -61.97344656812684 -4096 -55.12171768053842 -41.60149175271022 -4096 -4096 -0 -0 -1539.707928214647 4096 0 377.0774983266538 1:-0.42788989 2:-0.72918925 
-0 -0 -0 -0 -0 -0 -0 -0 -4096 -0 -4096 4096 0 4096 1:-0.019264299 2:-0.40599485 
-0 -0 -0 -0 -0 -0 -0 -0 -4096 -4096 -4096 780.3517785154818 4096 4096 1:0.52908418 2:-0.026737843 
-0 -0 -0 -0 -0 -0 -0 -0 -4096 -4096 -4096 4096 4096 0 1:0.25652041 2:-0.20017753 
-0 -0 -0 -0 -0 -0 -0 -0 -4096 -4096 -4096 4096 4096 0 1:0.36023388 2:-0.075365877 
-0 -0 -0 -3.566045853196763 -0 -0 -0 -0 -4096 -4096 -2141.329809177603 0 4096 2697.152111849669 1:0.20107433 2:0.42583005 
-0 -0 -0 -0 -0 -0 -0 -0 -0 -0 -4096 4096 0 4096 1:-0.078374529 2:-0.35309493 
-0 -0 -0 -0 -0 -0 -0 -0 -0 -0 -4096 4096 0 4096 1:-0.04547084 2:-0.20867687 
-0 -0 -0 -0 -0 -0 -0 -792.9830664211492 -0 -0 -0 4096 0 4096 1:-0.088545352 2:0.071370191 
-0 -0 -0 -0 -0 -0 -0 -0 -4096 -4096 -4096 4096 4096 4096 1:0.12117555 2:0.01591407 
-0 -0 -0 -0 -0 -0 -0 -0 -4096 -4096 -4096 3173.555427109665 4096 4096 1:0.1955266 2:0.26502121 
-4096 -0 -0 -4096 -0 -0 -0 -4096 -0 -0 -0 4096 0 4096 1:-0.20006193 2:-0.46491338 
-4096 -0 -0 -4096 -0 -0 -4096 -4096 -0 -0 -0 4096 0 0 1:-0.25663619 2:-0.66759523 
-4096 -0 -0 -4096 -0 -0 -0 -4096 -0 -0 -0 2932.958335652917 0 0 1:-0.094939339 2:-0.61469456 
-0 -0 -0 -0 -0 -0 -0 -0 -4096 -4096 -4096 1588.796666312259 4096 4096 1:0.13772816 2:-0.50272338 
-0 -0 -0 -4096 -0 -0 -0 -0 -4096 -0 -2663.547275347679 0 0 0 1:0.020857644 2:-0.56904475 
-0 -0 -0 -0 -0 -0 -0 -0 -4096 -4096 -4096 4096 4096 4096 1:0.36349465 2:-0.27531532 
-0 -0 -0 -0 -0 -0 -0 -4096 -0 -0 -0 4096 0 4096 1:-0.10911663 2:-0.25839189 
-0 -0 -0 -0 -0 -0 -0 -0 -4096 -4096 -4096 4096 4096 4096 1:0.045368066 2:-0.20079927 
-0 -0 -0 -0 -0 -0 -0 -0 -4096 -4096 -4096 4096 4096 4096 1:0.17743785 2:-0.18219184 
-0 -0 -0 -0 -0 -0 -0 -708.6941521365595 -0 -0 -3966.910538428103 4096 0 4096 1:-0.081971357 2:-0.39257454 
-4096 -0 -0 -1754.931534621697 -0 -0 -644.9583598725566 -4096 -0 -0 -0 4096 0 4096 1:-0.23120083 2:-0.45474614 
-0 -0 -0 -0 -0 -0 -0 -0 -0 -0 -4096 4096 0 4096 1:-0.076199213 2:-0.28988524 
-0 -0 -0 -0 -0 -0 -0 -0 -4096 -4096 -4096 4096 4096 1290.328785224845 1:0.056209038 2:-0.36184555 
-0 -0 -0 -0 -0 -0 -0 -0 -4096 -328.5349906607453 -4096 4096 0 4096 1:0.015111855 2:-0.30222793 
-0 -0 -0 -0 -0 -0 -0 -0 -0 -0 -4096 4096 4096 4096 1:-0.02586962 2:-0.04609757 
-0 -0 -0 -4096 -0 -0 -0 -0 -3659.604131709239 -0 -4096 4096 0 0 1:-0.038488191 2:-0.47903204 
-4096 -0 -0 -4096 -0 -0 -786.2875730806894 -4096 -0 -0 -0 4096 0 4096 1:-0.19154818 2:-0.53237359 
-0 -0 -0 -4027.896078343432 -0 -0 -0 -0 -4096 -0 -4096 4096 0 2576.813976939139 1:0.035329467 2:-0.54440864 
-0 -0 -0 -0 -0 -0 -0 -0 -38.81726967376272 -4096 -4096 4096 4096 4096 1:0.020390356 2:0.0032717825 
-0 -0 -0 -0 -0 -0 -0 -0 -4096 -4096 -4096 0 4096 4096 1:0.27139243 2:-0.54389421 
-0 -0 -0 -0 -0 -0 -0 -0 -4096 -4096 -4096 0 4096 0 1:0.5532759 2:0.36157209 
-4096 -0 -0 -4096 -0 -0 -0 -4096 -0 -0 -0 4096 0 4096 1:-0.16605174 2:-0.49223445 
-0 -0 -0 -0 -0 -0 -0 -0 -0 -0 -1583.831112086023 4096 2166.995611431263 4096 1:-0.032224974 2:-0.058659389 
-0 -0 -0 -0 -0 -0 -0 -0 -4096 -4096 -4096 4096 4096 4096 1:0.17928404 2:0.086990243 
-0 -0 -0 -0 -0 -0 -0 -0 -4096 -4096 -4096 0 4096 4096 1:0.24285673 2:-0.46809412 
-0 -0 -0 -4096 -0 -0 -0 -1915.826227385247 -4096 -0 -0 0 0 4096 1:0.031712359 2:-0.58883538 
-0 -0 -0 -4096 -0 -0 -0 -4096 -0 -0 -0 4096 0 2389.688615280112 1:-0.10924208 2:-0.48084967 
-0 -0 -0 -0 -0 -0 -0 -0 -4096 -4096 -0 844.8384638712792 4096 4096 1:0.52874086 2:-0.13021341 
-0 -0 -0 -0 -0 -0 -0 -0 -4096 -4096 -4096 4096 4096 4096 1:0.3109033 2:0.05758801 
-0 -0 -0 -0 -0 -0 -0 -0 -4096 -4096 -4096 4096 4096 0 1:0.47511394 2:-0.22741804 
-0 -0 -0 -0 -0 -0 -0 -4096 -0 -0 -0 -0 0 4096 1:-0.274981 2:-0.26570024 
-0 -0 -0 -0 -0 -0 -0 -4096 -0 -0 -439.5361222624306 -0 116.6032792946869 4096 1:-0.32742815 2:-0.20059937 
-0 -0 -0 -0 -0 -0 -0 -4096 -0 -0 -0 -2957.381009884517 0 4096 1:-0.21521973 2:-0.25359564 
-4096 -0 -0 -3805.451394840376 -0 -0 -0 -4096 -0 -0 -2321.784857134227 -4096 0 4096 1:-0.17795161 2:-0.44983677 
-4096 -0 -0 -4096 -0 -0 -4096 -4096 -0 -0 -1474.135074493627 -4096 0 4096 1:-0.24855465 2:-0.67233372 
-4096 -0 -0 -4096 -0 -0 -4096 -4096 -0 -0 -0 -4096 0 2477.428395547168 1:-0.26750829 2:-0.69310961 
-0 -0 -0 -0 -0 -0 -0 -0 -4096 -4096 -4096 -4096 4096 4096 1:0.13314754 2:-0.28547298 
-0 -0 -0 -0 -0 -0 -0 -0 -4096 -4096 -4096 -4096 4096 0 1:0.1882516 2:-0.19765215 
-0 -0 -0 -0 -0 -0 -0 -0 -4096 -4096 -4096 -4096 4096 4096 1:0.34707843 2:-0.23569195 
-0 -0 -0 -0 -0 -0 -0 -0 -4096 -4096 -4096 -4096 4096 4096 1:0.29036778 2:-0.20139346 
-0 -0 -0 -0 -0 -0 -0 -0 -4096 -4096 -4096 -4096 4096 4096 1:0.23617751 2:0.10118269 
-0 -0 -0 -0 -0 -0 -0 -0 -4096 -4096 -4096 -4096 4096 4096 1:0.061323858 2:0.023085984 
-0 -0 -0 -1513.421342752998 -0 -0 -0 -4096 -4096 -0 -4096 -4096 0 4096 1:-0.071186588 2:-0.42622793 
-0 -0 -0 -0 -0 -0 -0 -0 -2336.159322496577 -2719.140036581432 -4096 -4096 4096 4096 1:0.048794435 2:0.1995223 
-0 -0 -0 -0 -0 -0 -0 -0 -0 -0 -0 -4096 82.3394391709448 4096 1:0.0051646141 2:-0.0029262554 
-3652.921120234933 -0 -0 -0 -0 -0 -0 -4096 -0 -0 -0 -1318.342548275138 0 4096 1:-0.28241149 2:-0.29186628 
-0 -0 -0 -0 -0 -0 -72.65443422720922 -894.9250091112706 -0 -0 -0 -662.5918260978825 526.5158306742621 4096 1:-0.30806212 2:-0.0064942729 
-0 -0 -0 -0 -0 -0 -0 -4096 -0 -0 -0 -0 0 4096 1:-0.29674467 2:-0.21504628 
-1504.723198332059 -0 -0 -4096 -0 -0 -0 -4096 -465.9083055781708 -0 -4096 -4096 0 4096 1:-0.13578111 2:-0.48001169 
-4096 -3.951319761667552 -26.04433860774723 -4096 -24.28436235733463 -20.11890591591589 -4096 -4096 -0 -195.8192824506911 -0 -4096 0 0 1:-0.29542531 2:-0.70422468 
-0 -0 -0 -0 -0 -0 -0 -1049.679604402866 -1251.408960312698 -0 -4096 -316.5446287839071 0 4096 1:-0.012123462 2:-0.21347014 
-0 -0 -0 -0 -0 -0 -0 -0 -4096 -4096 -4096 -4096 4096 4096 1:0.16535451 2:-0.067188547 
-0 -0 -0 -0 -0 -0 -0 -0 -4096 -4096 -1637.128026988637 -4096 4096 4096 1:0.71077115 2:0.12023438 
-0 -0 -0 -0 -0 -0 -0 -0 -4096 -4096 -4096 -4096 4096 4096 1:0.17589472 2:-0.05987002 
-0 -0 -0 -0 -0 -0 -0 -0 -4096 -4096 -4096 -4096 1253.816673649976 0 1:0.061871986 2:-0.24739396 
-0 -0 -0 -0 -0 -0 -0 -358.131467189271 -0 -0 -0 -580.6752705740997 0 4096 1:-0.067058622 2:-0.079330577 
-0 -0 -0 -0 -0 -0 -0 -0 -4096 -4096 -4096 -4096 4096 0 1:0.1008045 2:-0.17606536 
-0 -0 -0 -0 -0 -0 -0 -0 -0 -0 -2676.842733058558 -712.611356263041 0 4096 1:0.0066206041 2:-0.11780533 
-0 -0 -0 -0 -0 -0 -0 -0 -4096 -4096 -4096 -4096 4096 4096 1:0.13239628 2:0.1472623 
-0 -0 -0 -0 -0 -0 -0 -4096 -0 -0 -0 -0 0 4096 1:-0.18446156 2:-0.17541682 
-0 -0 -0 -0 -0 -0 -0 -4096 -0 -0 -0 -4096 0 4096 1:-0.13585418 2:-0.25692712 
-4096 -0 -0 -4096 -0 -0 -0 -4096 -0 -0 -4096 -4096 0 4096 1:-0.18184505 2:-0.47854961 
-0 -0 -0 -0 -0 -0 -0 -0 -4096 -4096 -4096 -4096 0 0 1:0.028170318 2:-0.28865645 
-0 -0 -0 -0 -0 -0 -0 -0 -4096 -4096 -4096 -4096 4096 0 1:0.082671215 2:-0.18050138 
-0 -0 -0 -0 -0 -0 -0 -0 -4096 -4096 -4096 -4096 4096 4096 1:0.2734115 2:-0.29743759 
-0 -0 -0 -0 -0 -0 -0 -0 -4096 -4096 -4096 -4096 4096 4096 1:0.15913431 2:-0.084690257 
-0 -0 -0 -0 -0 -0 -0 -0 -4096 -4096 -4096 -4096 4096 4096 1:0.099500256 2:-0.11335052 
-0 -0 -0 -0 -0 -0 -0 -4096 -0 -0 -0 -0 0 4096 1:-0.092217503 2:-0.20729185 
-0 -0 -0 -0 -0 -0 -0 -4096 -0 -0 -0 -4096 0 4096 1:-0.15300934 2:-0.36983612 
-0 -0 -0 -0 -0 -0 -0 -4096 -0 -0 -0 -4096 0 4096 1:-0.11970795 2:-0.2893337 
-0 -0 -0 -0 -0 -0 -0 -0 -4096 -4096 -4096 -4096 4096 4096 1:0.12848928 2:-0.2985295 
-0 -0 -0 -0 -0 -0 -0 -0 -4096 -4096 -4096 -4096 4096 4096 1:0.26372463 2:-0.30938375 
-0 -0 -0 -0 -0 -0 -0 -0 -4096 -4096 -4096 -4096 4096 4096 1:0.42553189 2:0.041004637 
-0 -0 -0 -0 -0 -0 -0 -0 -4096 -4096 -4096 -4096 0 1111.134331122687 1:0.01900758 2:-0.29876402 
-0 -0 -0 -0 -0 -0 -0 -0 -4096 -4096 -4096 -4096 4096 4096 1:0.25783695 2:-0.16163704 
-0 -0 -0 -0 -0 -0 -0 -4096 -0 -0 -0 -4096 0 4096 1:-0.15781768 2:-0.32809635 
-4096 -0 -0 -4096 -0 -0 -2356.196821789134 -4096 -0 -0 -0 -4096 0 0 1:-0.27589595 2:-0.64942224 
-4096 -0 -0 -4096 -0 -0 -0 -4096 -4096 -0 -4096 -4096 3317.911171920135 4096 1:-0.10494591 2:-0.56712438 
-0 -0.1524250916182133 -0 -0 -0 -0 -9.190877481170238 -0 -3001.316272027024 -4096 -0 -0 1261.052232436091 0 1:0.53169572 2:0.70066565 
-0 -0 -0 -0 -0 -0 -0 -0 -4096 -4096 -2329.997075304197 -343.3462381877454 4096 446.176123575922 1:0.59519649 2:0.55742737 
-0 -0 -0 -0 -0 -0 -0 -0 -0 -0 -4096 -4096 4096 4096 1:0.043366889 2:0.066399947 
-0 -0 -0 -0 -0 -0 -0 -4096 -0 -0 -4096 -4096 0 4096 1:-0.12774661 2:-0.40678057 
-0 -0 -0 -0 -0 -0 -0 -4096 -0 -0 -0 -4096 0 4096 1:-0.15013746 2:-0.36667853 
-4096 -0 -0 -4096 -0 -0 -0 -4096 -0 -0 -0 -4096 85.31468645558017 0 1:-0.29189619 2:-0.51262534 
-0 -0 -0 -0 -0 -0 -0 -4096 -0 -0 -0 -4096 0 4096 1:-0.15701311 2:-0.38608506 
-0 -0 -0 -0 -0 -0 -0 -0 -4096 -935.7043607807116 -4096 -4096 0 4096 1:0.033355609 2:-0.15928133 
-0 -0 -0 -0 -0 -0 -0 -0 -4096 -4096 -4096 -4096 4096 4096 1:0.10292515 2:-0.098075838 
-0 -0 -0 -0 -0 -0 -0 -0 -4096 -4096 -4096 -4096 4096 4096 1:0.22544734 2:-0.049798459 
-0 -0 -0 -4096 -0 -0 -0 -0 -4096 -4096 -4096 -4096 4096 4096 1:0.12832369 2:-0.41141883 
-0 -0 -0 -0 -0 -0 -0 -0 -4096 -4096 -4096 -4096 4096 4096 1:0.47298288 2:-0.1780968 
-0 -0 -0 -0 -0 -0 -0 -0 -4096 -4096 -4096 -4096 -4096 4096 1:0.065577544 2:0.014806581 
-0 -0 -0 -0 -0 -0 -0 -0 -0 -4096 -2959.491317397213 -0 -0 0 1:0.55394294 2:0.41406418 
-0 -0 -0 -0 -0 -0 -0 -0 -4096 -4096 -4096 -4096 -4096 4096 1:0.07336747 2:-0.20800391 
-0 -0 -0 -0 -0 -0 -0 -0 -4096 -4096 -4096 -4096 -4096 4096 1:0.19669691 2:0.062255836 
-0 -0 -0 -0 -0 -0 -0 -0 -4096 -4096 -4096 -4096 -4096 4096 1:0.21329437 2:0.056142099 
-0 -0 -0 -0 -0 -0 -0 -0 -4096 -4096 -4096 -4096 -4096 4096 1:0.1404498 2:-0.20491835 
-0 -0 -0 -0 -0 -0 -0 -0 -4096 -4096 -4096 -0 -0 0 1:0.44248639 2:-0.11233314 
-0 -0 -0 -0 -0 -0 -0 -0 -4096 -4096 -4096 -0 -0 0 1:0.31754521 2:0.19053248 
-0 -0 -0 -0 -0 -0 -0 -0 -4096 -4096 -4096 -4096 -4096 4096 1:0.1789777 2:-0.15817461 
-0 -0 -0 -0 -0 -0 -0 -0 -4096 -4096 -4096 -4096 -4096 4096 1:0.32723652 2:-0.27308116 
-0 -0 -0 -0 -0 -0 -0 -0 -4096 -4096 -4096 -4096 -0 4096 1:0.36398824 2:-0.42533668 
-0 -0 -0 -0 -0 -0 -0 -0 -4096 -4096 -4096 -0 -0 0 1:0.36703958 2:0.16592457 
-0 -0 -0 -0 -0 -0 -0 -0 -4096 -4096 -539.2679046050558 -0 -0 0 1:0.51442848 2:-0.15782363 
-0 -0 -0 -0 -0 -0 -0 -0 -4096 -4096 -4096 -2902.470806813579 -0 0 1:0.47922298 2:0.257695 
-0 -0 -0 -0 -0 -0 -0 -0 -0 -0 -0 -811.3270508730642 -0 155.478725284162 1:0.15958386 2:0.40867327 
-0 -0 -0 -0 -0 -0 -0 -739.4106932368959 -1698.548315534015 -214.2884103393691 -4096 -4096 -4096 4096 1:-0.063008018 2:-0.12852315 
-0 -0 -0 -0 -0 -0 -0 -0 -0 -1885.647626590353 -0 -0 -0 0 1:0.35476604 2:0.42343341 
-82.84256222000502 -1.895760852817603 -5.455092911371579 -3152.528334013422 -5.319899602813495 -4.877062282436434 -22.92571636109877 -3995.173863038744 -4096 -3382.335030807562 -4096 -4096 -4096 4096 1:0.034983542 2:-0.55102219 
-0 -0 -0 -0 -0 -0 -0 -0 -4096 -4096 -4096 -0 -0 0 1:0.49234794 2:0.017421413 
-0 -0 -0 -0 -0 -0 -0 -0 -4096 -4096 -4096 -4096 -4096 4096 1:-0.0021435066 2:-0.19226374 
-0 -0 -0 -0 -0 -0 -0 -0 -4096 -4096 -0 -0 -4096 0 1:0.60334693 2:0.44216903 
-0 -0 -0 -0 -0 -0 -0 -0 -3557.669785211573 -4096 -1755.485083730993 -0 -0 0 1:0.63709332 2:0.34353335 
-0 -0 -0 -0 -0 -0 -0 -0 -2347.55390528979 -4096 -0 -0 -155.2285802818461 0 1:0.50811101 2:0.48798745 
-0 -0 -0 -0 -0 -0 -0 -0 -4096 -4096 -4096 -4096 -4096 4096 1:0.32748582 2:-0.17449981 
-0 -0 -0 -0 -0 -0 -0 -0 -4096 -4096 -4096 -4096 -4096 4096 1:0.25635487 2:-0.010886004 
-0 -0 -0 -0 -0 -0 -0 -0 -4096 -4096 -4096 -4096 -4096 4096 1:-0.018156553 2:-0.14922674 
-0 -0 -0 -0 -0 -0 -0 -0 -4096 -4096 -4096 -4012.575164083162 -4096 4096 1:0.28347566 2:0.080332139 
-0 -0 -0 -0 -0 -0 -0 -0 -4096 -4096 -4096 -0 -0 1986.725088793874 1:0.30213117 2:0.16193572 
-0 -0 -0 -0 -0 -0 -0 -0 -0 -4096 -0 -756.9496521295145 -0 0 1:0.41634315 2:0.51190642 
-0 -0 -0 -0 -0 -0 -0 -0 -345.517263352913 -4096 -0 -0 -0 0 1:0.43000684 2:0.4014946 
-20.12414353385566 -0 -0 -134.4017078670848 -0 -0 -0 -4096 -4096 -4096 -4096 -4096 -4096 4096 1:-0.043673792 2:-0.28545446 
-0 -0 -0 -0 -0 -0 -0 -0 -0 -3296.140045023594 -4096 -4096 -0 0 1:0.54320619 2:0.1732966 
-0 -0 -0 -0 -0 -0 -0 -0 -4096 -4096 -4096 -0 -2593.645739238902 0 1:0.39007654 2:-0.16799521 
-0 -0 -0 -0 -0 -0 -0 -0 -3484.627807588779 -2354.346611675023 -2364.341857323007 -4096 -0 291.7625587093322 1:0.47716738 2:-0.51757212 
-0 -0 -0 -0 -0 -0 -0 -0 -4096 -4096 -4096 -0 -0 0 1:0.38094592 2:0.34642442 
-0 -0 -0 -0 -0 -0 -0 -0 -4096 -4096 -4096 -4096 -4096 4096 1:0.15971685 2:0.24145099 
-0 -0.3527381837308646 -0.01430921442076759 -0 -0.01943378631950835 -0.05079953125301893 -0 -0 -4096 -2308.532644450146 -0 -156.9677238588038 -774.4325955231761 0 1:0.36497212 2:0.96196085 
-0 -0 -0 -0 -0 -0 -0 -0 -4096 -4096 -4096 -1401.922160670548 -4096 4096 1:0.33189546 2:-0.086319879 
-0 -0 -0 -0 -0 -0 -0 -0 -4096 -4096 -4096 -4096 -4096 4096 1:0.15558731 2:-0.35002828 
-0 -0 -0 -0 -0 -0 -0 -0 -4096 -4096 -4096 -2240.515129750879 -4096 0 1:0.35750698 2:-0.16719644 
-0 -0 -0 -0 -0 -0 -0 -0 -0 -0 -0 -1828.037033621657 -0 3590.215679969801 1:0.62297327 2:0.027900392 
-0 -0 -0 -0 -0 -0 -0 -0 -0 -0 -0 -4096 -0 0 1:0.61253457 2:-0.024453683 
-0 -0 -0 -0 -0 -0 -0 -0 -4096 -4096 -4096 -4096 -4096 4096 1:0.23841157 2:-0.3095737 
-0 -0 -0 -0 -0 -0 -0 -0 -4096 -4096 -4096 -4096 -4096 4096 1:0.22865796 2:-0.2532033 
-0 -0 -0 -0 -0 -0 -0 -0 -4096 -4096 -4096 -4096 -4096 4096 1:0.21503727 2:0.02357112 
-0 -0 -0 -0 -0 -0 -0 -0 -4096 -2843.730865628217 -0 -0 -3120.246398557754 2204.461113709639 1:0.77849706 2:0.28301223 
-0 -0 -0 -0 -0 -0 -0 -0 -4096 -0 -0 -0 -0 4096 1:0.66706024 2:-0.0073713221 
-0 -0 -0 -0 -0 -0 -0 -0 -4096 -4096 -4096 -4096 -0 0 1:0.48911445 2:0.25433629 
-0 -0 -0 -0 -0 -0 -0 -0 -4096 -4096 -4096 -4096 -0 4096 1:0.20649821 2:0.2616553 
-0 -0 -0 -0 -0 -0 -0 -0 -0 -3569.80899798727 -3850.871562402164 -4096 -4096 4096 1:0.05992118 2:0.2103088 
-0 -0 -0 -0 -0 -0 -0 -0 -4096 -4096 -4096 -0 -0 0 1:0.46909046 2:-0.050291201 
-0 -0 -0 -0 -0 -0 -0 -0 -4096 -4096 -4096 -0 -0 0 1:0.42686719 2:-0.13928594 
-0 -0 -0 -0 -0 -0 -0 -0 -4096 -4096 -4096 -4096 -4096 4096 1:0.26467208 2:-0.1575316 
-0 -0 -0 -0 -0 -0 -0 -0 -0 -0 -0 -4096 -0 0 1:0.58414427 2:-0.03158447 
-0 -0 -0 -0 -0 -0 -0 -0 -0 -0 -0 -4096 -0 0 1:0.53685186 2:-0.12262492 
-0 -0 -0 -0 -0 -0 -0 -0 -4096 -4096 -4096 -4096 -4096 4096 1:0.36838464 2:-0.2626251 
-0 -0 -0 -0 -0 -0 -0 -0 -0 -0 -0 -0 -4096 -0 1:-0.13449113 2:-0.035608461 
-0 -0 -0 -0 -0 -0 -0 -4096 -0 -0 -0 -0 -4096 -0 1:-0.31181936 2:-0.17528089 
-0 -0 -0 -0 -0 -0 -0 -0 -4096 -4096 -4096 -4096 -0 -4096 1:0.24189571 2:-0.44028227 
-0 -0 -0 -0 -0 -0 -0 -0 -4096 -4096 -4096 -4096 -4096 -4096 1:0.2466041 2:-0.35712995 
-0 -0 -0 -0 -0 -0 -0 -0 -4096 -4096 -4096 -4096 -4096 -4096 1:0.18127872 2:0.12715771 
-0 -0 -0 -4096 -0 -0 -0 -0 -4096 -0 -4096 -4096 -0 -0 1:0.092285512 2:-0.59625155 
-0 -0 -0 -0 -0 -0 -0 -0 -4096 -4096 -4096 -4096 -4096 -4096 1:0.19287491 2:-0.24575001 
-0 -0 -0 -0 -0 -0 -0 -0 -4096 -4096 -4096 -4096 -4096 -4096 1:0.24719602 2:-0.36316881 
-0 -0 -0 -0 -0 -0 -0 -0 -4096 -3214.24632320264 -4096 -4096 -4096 -4096 1:0.074644577 2:0.049056041 
-0 -0 -0 -0 -0 -0 -0 -4096 -0 -0 -0 -2654.291992621431 -4096 -0 1:-0.22773615 2:-0.27474737 
-0 -0 -0 -0 -0 -0 -0 -0 -4096 -4096 -4096 -4096 -4096 -4096 1:0.15497846 2:0.10710288 
-0 -0 -0 -0 -0 -0 -0 -0 -4096 -4096 -4096 -4096 -4096 -4096 1:0.049617781 2:-0.39017192 
-0 -0 -0 -0 -0 -0 -0 -0 -4096 -0 -4096 -4096 -1804.79424369182 -4096 1:0.10837566 2:0.10541633 
-0 -0 -0 -0 -0 -0 -0 -0 -4096 -4096 -4096 -4096 -4096 -4096 1:0.18865713 2:-0.23366721 
-4096 -0 -0 -0 -0 -0 -0 -4096 -0 -0 -0 -4096 -4096 -0 1:-0.25504454 2:-0.39969045 
-4096 -0.6267856944576914 -0 -0 -0 -0 -33.26605956712355 -4096 -0 -0 -0 -0 -4096 -611.8676162652953 1:-0.35524674 2:-0.38333131 
-0 -0 -0 -0 -0 -0 -0 -440.0904448813486 -0 -0 -0 -0 -529.4012712429948 -0 1:-0.27518939 2:-0.042562588 
-0 -0 -0 -0 -0 -0 -0 -4096 -0 -0 -0 -4096 -4096 -0 1:-0.20203812 2:-0.37986334 
-0 -0 -0 -0 -0 -0 -0 -0 -4096 -3113.446093669311 -4096 -4096 -0 -1480.775101904653 1:0.17150236 2:-0.50534135 
-0 -0 -0 -0 -0 -0 -0 -4096 -40.62454336130509 -0 -4096 -4096 -4096 -0 1:-0.12565539 2:-0.39027561 
-0 -0 -0 -0 -0 -0 -0 -0 -4096 -4096 -4096 -4096 -4096 -4096 1:0.33060623 2:0.022228279 
-0 -0 -0 -0 -0 -0 -0 -0 -4096 -4096 -4096 -4096 -4096 -4096 1:0.2227694 2:-0.19590682 
-0 -0 -0 -0 -0 -0 -0 -0 -4096 -4096 -4096 -4096 -4096 -4096 1:0.31442591 2:-0.0029556102 
-0 -0 -0 -0 -0 -0 -0 -2656.754678152885 -0 -0 -0 -0 -4096 -0 1:-0.14271125 2:-0.088144803 
-4096 -0 -0 -4096 -0 -0 -0 -4096 -1229.758857293375 -0 -890.3631755658594 -4096 -4096 -0 1:-0.13063937 2:-0.56329133 
-4096 -2.80049065621283 -15.52895223268044 -4096 -14.74715248343527 -12.74940004042793 -2807.559598008492 -4096 -0 -0 -154.4603035389812 -4096 -4096 -0 1:-0.22543533 2:-0.65468891 
-0 -0 -0 -0 -0 -0 -0 -0 -0 -0 -0 -327.8670639445218 -0 -0 1:-0.04886718 2:0.10323383 
-0 -0 -0 -0 -0 -0 -0 -0 -0 -0 -1724.06617844313 -4096 -4096 -1715.505179594418 1:-0.049128199 2:-0.030944946 
-0 -0 -0 -0 -0 -0 -0 -4096 -4096 -0 -4096 -4096 -4096 -0 1:-0.063503541 2:-0.29594086 
-0 -0 -0 -0 -0 -0 -0 -0 -4096 -4096 -4096 -4096 -4096 -4096 1:0.031753262 2:-0.062272833 
-0 -0 -0 -0 -0 -0 -0 -4096 -0 -0 -4096 -4096 -4096 -0 1:-0.13194224 2:-0.3837418 
-0 -0 -0 -0 -0 -0 -0 -0 -4096 -4096 -4096 -4096 -4096 -4096 1:0.12699078 2:0.07994121 
-0 -0 -0 -0 -0 -0 -0 -0 -4096 -4096 -4096 -4096 -2067.695730900376 -4096 1:0.40597094 2:0.19398951 
-0 -0 -0 -0 -0 -0 -0 -0 -4096 -4096 -4096 -4096 -2099.525947059655 -4096 1:0.45480835 2:-0.27296245 
-0 -0 -0 -0 -0 -0 -0 -4096 -0 -0 -0 -0 -4096 -0 1:-0.18412085 2:-0.090126717 
-0 -0 -0 -0 -0 -0 -0 -0 -0 -0 -0 -0 -4096 -0 1:-0.14212483 2:-0.032080433 
-0 -0 -0 -0 -0 -0 -0 -0 -272.3143077485667 -4096 -4096 -4096 -4096 -4096 1:-0.016027605 2:-0.093972751 
-0 -0 -0 -0 -0 -0 -0 -4096 -0 -0 -4096 -4096 -4096 -0 1:-0.15001067 2:-0.38238299 
-0 -0 -0 -0 -0 -0 -0 -0 -4096 -4096 -4096 -4096 -4096 -4096 1:-0.0077699375 2:-0.13325994 
-0 -0 -0 -0 -0 -0 -0 -0 -4096 -4096 -4096 -4096 -4096 -4096 1:0.056725593 2:-0.27425511 
-0 -0 -0 -0 -0 -0 -0 -0 -0 -1666.519121401697 -0 -1953.874400364177 -1629.321657350929 -4096 1:0.82275017 2:0.11748597 
-0 -0 -0 -0 -0 -0 -0 -0 -2248.701688836647 -0 -0 -550.8628828667848 -0 -0 1:1 2:-0.20604913 
-0 -0 -0 -0 -0 -0 -0 -0 -4096 -4096 -4096 -4096 -4096 -4096 1:0.54721644 2:-0.082204569 
-0 -0 -0 -143.8415559440827 -0 -0 -0 -0 -4096 -4096 -4096 -4096 -4096 -4096 1:0.066396809 2:-0.39931754 
-0 -0 -0 -4096 -0 -0 -0 -4096 -4096 -0 -4096 -4096 -4096 -0 1:-0.088751009 2:-0.516348 
-2644.053805839756 -0 -0 -4096 -0 -0 -0 -4096 -0 -0 -1932.84713948006 -4096 -4096 -0 1:-0.16072466 2:-0.48821221 
-0 -0 -0 -0 -0 -0 -0 -4096 -0 -1260.700599259431 -4096 -4096 -4096 -324.495268702437 1:-0.0915695 2:-0.21429453 
-0 -0 -0 -0 -0 -0 -0 -0 -4096 -4096 -4096 -4096 -4096 -4096 1:0.30257988 2:0.056802832 
-0 -0 -0 -0 -0 -0 -0 -0 -3376.503773677881 -4096 -4096 -4096 -0 -4096 1:0.16587633 2:0.32424848 
-0 -0 -0 -0 -0 -0 -0 -4096 -0 -0 -0 -4096 -4096 -0 1:-0.21544897 2:-0.27023082 
-0 -0 -0 -0 -0 -0 -0 -0 -0 -0 -0 -4096 -4096 -0 1:-0.10010381 2:-0.038453089 
-0 -0 -0 -4096 -0 -0 -0 -4096 -4096 -0 -4096 -4096 -4096 -0 1:-0.12365496 2:-0.45735013 
-0 -0 -0 -0 -0 -0 -0 -4096 -0 -0 -0 -0 -4096 -0 1:-0.21953404 2:-0.19591527 
-4096 -0 -0 -1692.917722987179 -0 -0 -0 -4096 -0 -0 -0 -4096 -4096 -0 1:-0.25640305 2:-0.42358696 
-0 -0 -0 -4096 -0 -0 -0 -1543.679503875709 -4096 -0 -4096 -4096 -4096 -0 1:-0.029629863 2:-0.38461065 
-0 -0 -0 -0 -0 -0 -0 -0 -4096 -4096 -4096 -4096 -4096 -4096 1:0.31522517 2:-0.070102314 
-0 -0 -0 -0 -0 -0 -0 -0 -4096 -4096 -4096 -4096 -4096 -4096 1:0.39666852 2:-0.076473926 
-0 -0 -0 -0 -0 -0 -0 -0 -4096 -4096 -4096 -4096 -4096 -4096 1:0.18263151 2:-0.22974785 
